Age,Model,Trial,,V1,V2,V3,V4,V5,V6,V7,V8,V9,V10,V11,V12,V13,V14,V15,V16
A,M,1,1,-357.69984,-225.56224,-334.44128,-233.97728,-292.18816,-258.86688,-350.1232,-353.58784,-352.2112,-294.54336,-339.02368,-363.34976,-324.50464,-372.3024,-433.64352,-470.4144
A,M,1,2,-45.85344,-41.84352,-49.15712,-4.32,-58.448,-52.5008,-30.3696,-12.31872,-41.2576,-29.87136,-28.04992,-22.0272,-31.24992,7.17536,4.45792,3.6496
A,M,1,3,211.79648,137.79776,110.30848,69.85888,70.64896,60.19936,45.03808,53.10368,36.38048,11.84736,34.7632,39.47424,38.60288,-1.26272,16.52,-0.6784
A,M,1,4,35.54848,133.6144,56.9648,121.83264,73.12,69.47648,63.68352,58.60256,55.86944,25.11232,12.86752,25.54656,20.40704,31.62784,35.56448,38.47168
A,M,1,5,147.22176,37.97536,94.73248,80.56,84.67456,46.79552,91.67328,57.89984,49.20032,41.26112,37.32832,28.92224,23.48096,7.98912,35.07936,29.07616
A,M,1,6,-171.61216,-104.88288,-216.14272,-221.09312,-244.93696,-284.83744,-284.176,-279.04416,-345.20704,-330.4432,-348.24352,-374.46496,-375.6,-449.50176,-456.07648,-322.5712
A,M,1,7,-36.74368,-114.68416,-62.02944,-86.2576,-101.87008,-110.6192,-105.54624,-38.32256,-56.83296,-154.3984,-93.52608,-114.13568,-120.27744,-110.87584,-99.52384,-109.76704
A,M,1,8,149.34208,22.48576,55.4992,52.44192,99.5104,44.04064,39.02304,40.3392,48.82272,33.31936,21.15936,38.83776,35.4512,29.87328,35.52096,68.72096
A,M,1,9,139.84608,133.20576,130.78784,121.128,133.10176,125.33632,101.28384,103.76512,90.81888,62.42688,76.75488,103.26496,67.15328,72.74208,67.45696,62.32288
A,M,1,10,45.81184,29.54368,65.70144,28.01312,62.36864,67.93024,35.95872,13.9344,28.15936,29.9536,51.06848,17.38848,29.11488,30.54656,64.75264,59.37248
A,M,1,11,-296.19008,-216.98464,-207.92832,-194.50592,-236.08992,-197.0432,-313.2624,-284.73024,-302.06336,-412.22464,-403.82496,-319.5632,-430.83584,-470.85856,-451.2144,-428.81536
A,M,1,12,-154.7968,-149.36576,-107.05856,-25.1232,19.5232,-74.1184,-154.95872,-56.71008,-104.46688,-120.9792,-81.4224,-127.2192,-81.39616,-139.61312,-122.83104,-28.87264
A,M,1,13,130.16352,76.8976,149.65184,107.5472,110.97312,118.61664,107.21216,23.37824,75.384,52.90976,50.82688,22.55872,92.70976,79.19584,77.47456,97.59488
A,M,1,14,77.45664,10.1696,23.99776,49.2048,27.36608,38.21344,23.53472,20.86304,48.32832,-28.12608,16.80928,33.32224,-0.06464,42.42048,54.57696,64.72416
A,M,1,15,-140.52192,-106.48544,-191.6832,-152.63008,-183.3456,-241.8992,-206.1264,-112.74944,-75.76,-153.87936,-153.88736,-159.192,-239.20288,-288.0704,-235.0816,-260.73472
A,M,1,16,-19.32864,-22.65984,-29.15584,16.54528,-3.35552,-13.91136,-16.09728,22.43808,26.74432,-20.48096,28.93344,37.68224,-54.53824,19.62528,31.52608,44.1856
A,M,1,17,13.84,15.39552,36.24864,-40.10464,-20.90816,19.36096,-24.664,33.60768,42.1856,27.71296,9.97152,0.32384,-0.34752,28.3264,1.86624,52.16928
A,M,1,18,76.07008,48.25248,26.68224,19.5104,97.65824,55.36736,62.21152,63.80192,30.64544,-1.53248,5.61696,23.54432,11.95648,17.28832,27.84416,37.248
A,M,1,19,56.2288,67.37472,67.42688,65.62336,75.02752,78.0464,59.3792,98.78272,56.67936,65.49408,52.2016,22.1392,48.02368,56.72224,73.44992,78.92096
A,M,1,20,-11.72192,20.41952,-31.75552,1.57568,-46.10752,3.06048,-69.14624,-7.65056,-14.72832,-41.85312,-6.80384,-19.88032,-31.60544,-22.87232,4.76064,9.8128
A,M,1,21,15.2064,19.93632,-4.36768,47.74368,45.39936,-29.95584,-26.67968,32.98304,0.29056,0.85056,-53.01312,26.13056,14.68096,19.89216,20.36928,47.7216
A,M,1,22,-68.90944,-95.85152,-75.57184,-129.7024,-62.1136,-84.38144,-51.55328,-46.82176,-39.752,-89.88576,-104.68768,-64.2832,-20.85472,-40.32384,-18.55104,-18.76032
A,M,1,23,-69.03712,-84.38432,-27.4832,-0.33344,6.17152,-59.78016,-34.70048,-36.73536,-45.8416,-74.57728,-20.1216,-61.4496,-51.48704,-74.99328,-36.0496,-70.15968
A,M,1,24,-168.31136,-228.12096,-225.73216,-300.424,-350.2464,-405.08512,-425.53472,-311.46496,-330.32576,-441.472,-460.09472,-462.9136,-522.4672,-599.1568,-559.13696,-517.94688
A,M,1,25,48.92416,-5.49056,6.17504,-55.39136,-84.56,-89.13728,-119.99904,-80.02816,-8.5968,-61.624,-56.38848,-91.28608,-49.896,-64.49888,-57.872,-33.13728
J,M,1,1,-102.16256,-466.36992,-91.47968,-323.28736,-236.8528,-441.86528,-248.82304,-306.49504,-212.664,-446.62592,-381.62592,-276.11744,-425.5184,-537.08672,-437.28608,-368.45056
J,M,1,2,54.09888,31.23328,63.71776,-53.23296,0.48576,45.97504,92.1136,-39.70976,51.208,58.45664,27.56544,38.94912,104.7376,11.51424,33.93472,27.87008
J,M,1,3,293.37376,372.0272,239.01568,285.77056,189.0736,174.35488,177.50176,111.44256,75.33216,125.45184,118.8352,88.0912,41.7744,81.50336,25.89664,65.99104
J,M,1,4,344.24,40.50656,273.28096,122.69472,187.76608,125.41952,100.96224,116.95456,27.58464,38.93408,81.21632,84.19296,92.61152,68.89568,58.21952,63.85088
J,M,1,5,126.41088,321.30176,169.344,238.01696,124.65056,218.05248,153.40512,167.76128,138.50176,150.52576,116.5504,68.58816,34.37728,81.61056,65.59264,72.43968
J,M,1,6,-50.97216,-286.84384,-256.5904,-274.59552,-329.73696,-280.28928,-348.21472,-414.25856,-340.31232,-367.94176,-410.10784,-383.50016,-417.38752,-525.00448,-245.896,-498.56864
J,M,1,7,-235.41888,1.81472,-79.9776,-72.38176,-69.03712,-87.85984,44.36768,-42.93792,-172.54752,-4.36512,-80.06304,-81.79168,-19.61888,-56.21024,-25.50112,-75.66976
J,M,1,8,31.56896,285.35776,173.25216,285.45952,117.68448,202.69536,159.6336,168.87008,91.93024,99.8224,111.42048,119.8496,125.18048,108.22752,145.68992,53.72224
J,M,1,9,321.28416,257.96608,308.69984,278.19328,259.37248,192.18912,234.25568,204.53312,163.1824,227.72544,260.18784,129.51776,177.93056,121.13248,151.70592,156.37376
J,M,1,10,164.42688,232.58848,97.93888,214.87872,200.51648,138.75008,102.21184,143.69184,90.88896,171.9168,73.09408,96.51584,55.65792,106.26016,136.7136,140.05536
J,M,1,11,-147.49632,-223.7808,-128.94496,-214.77216,-190.20864,-415.96832,-321.56768,-223.23712,-464.74304,-394.72992,-203.1952,-475.78656,-453.46272,-415.69696,-416.63744,-323.20192
J,M,1,12,-44.67904,-12.528,94.45472,55.2512,53.30016,-102.50976,133.61088,-39.0432,-64.55392,40.08224,-145.91616,65.73152,-31.88288,31.21472,178.208,137.98848
J,M,1,13,197.55712,414.23168,250.70496,314.95328,305.00032,243.32192,104.25696,272.52768,172.93568,169.4176,101.94304,268.28,192.51648,162.34016,231.52384,186.58144
J,M,1,14,-18.28608,105.99744,113.12416,74.7536,109.21632,91.3088,81.72032,86.6912,-8.44704,116.5408,97.00032,73.72064,136.31168,145.76832,106.2384,115.984
J,M,1,15,-47.624,-223.42784,-71.23456,-92.30304,-334.32704,-26.88512,10.67712,-41.96064,-294.98016,-156.76064,-165.78016,-229.04608,-260.29024,-152.88032,-306.0944,205.51136
J,M,1,16,38.81248,-19.12448,86.064,28.10112,1.51392,49.536,93.85056,45.03968,-13.6496,117.408,69.95328,-68.37312,125.91136,96.2768,113.25312,60.87232
J,M,1,17,40.896,69.79328,-13.23744,74.74528,87.36512,-13.86784,126.08896,116.38208,50.08832,48.8576,38.5024,57.8784,42.9456,41.91872,83.3072,150.3568
J,M,1,18,106.34656,124.1616,92.4672,258.75936,129.93568,170.1872,149.47264,111.31456,46.7488,99.3504,152.46816,70.37664,81.75008,103.67456,106.31488,88.63264
J,M,1,19,185.23456,263.32832,177.5248,229.9008,176.98944,167.2288,233.27456,141.55264,215.13632,110.52,108.5984,189.22816,185.41024,245.0784,209.6784,231.072
J,M,1,20,143.10144,-9.43872,156.89664,23.90432,137.58656,-8.8848,121.11488,36.99488,41.39776,105.31808,65.36448,43.03904,35.30144,118.40064,75.568,100.24864
J,M,1,21,162.04672,68.91168,205.48448,135.73216,5.64864,63.12544,243.51424,96.2192,95.31744,34.74944,170.40352,136.42592,121.24992,162.25504,193.8544,122.5712
J,M,1,22,-99.31456,58.48736,-129.96448,32.80448,13.928,23.55488,32.50592,-16.57024,-9.70048,-50.95424,69.22208,127.28896,8.4304,80.36928,78.69472,97.928
J,M,1,23,-44.36352,91.7216,39.81568,100.79968,-34.37408,9.43648,61.08096,-20.53536,-136.11232,116.86656,-80.25088,-76.88128,-56.44,79.9808,-78.96992,150.07584
J,M,1,24,-256.8736,-225.6128,-381.59328,-387.48128,-398.45888,-400.86176,-203.07168,-318.26496,-526.61568,-472.98432,-462.952,-485.18208,-710.248,-565.32864,-431.36256,-754.80608
J,M,1,25,-18.4672,94.00096,16.85024,-66.48928,-36.4368,-43.24896,7.58656,139.94016,-42.55328,25.25888,-32.92544,65.5808,10.3728,45.26272,98.16352,6.19904
A,K,1,1,-368.70144,-247.2944,-319.33504,-283.99104,-290.90336,-298.17312,-345.96832,-326.7696,-361.19552,-418.6896,-389.1568,-393.1712,-429.80384,-451.66592,-439.72832,-432.712
A,K,1,2,-18.22176,37.6704,-31.39296,23.7392,2.25568,26.09952,2.26656,25.69888,30.1504,3.24672,5.30784,26.50528,-0.6848,23.17056,39.92448,56.49984
A,K,1,3,298.74784,209.51264,175.65504,126.38848,121.10368,104.14208,82.22304,81.78432,70.40192,47.1984,55.5552,48.75616,51.28288,16.64544,30.5056,7.53568
A,K,1,4,34.6848,153.58752,70.48448,132.43328,80.97984,77.44512,66.944,67.3088,59.90784,46.17536,32.95072,40.99136,29.85504,28.6896,34.19616,41.65504
A,K,1,5,198.75168,84.69824,141.63968,103.12096,119.05536,83.84768,111.55488,82.7456,81.4624,61.42816,48.38368,36.45664,38.42176,26.83072,43.72864,36.45632
A,K,1,6,-277.44864,-234.01568,-337.07584,-289.1376,-347.2576,-398.22464,-445.37856,-405.47616,-441.72,-487.7232,-527.1712,-554.992,-595.42528,-672.08288,-666.848,-652.97472
A,K,1,7,-28.4592,-97.61088,-77.67872,-62.18176,-69.952,-95.64096,-82.54976,-77.86368,-61.90944,-103.1424,-79.54688,-71.88288,-97.50752,-106.14336,-91.6112,-106.04864
A,K,1,8,234.81216,79.40064,151.87488,101.89472,133.29152,103.59072,96.43808,80.82528,78.59264,73.52736,59.86016,76.47456,58.93184,58.74944,61.4688,87.19808
A,K,1,9,138.42912,129.68,126.92672,118.31424,124.18624,128.69536,107.86208,106.76128,103.5968,67.71584,71.29152,92.37792,62.05952,65.54496,77.53056,64.60384
A,K,1,10,97.8736,73.70272,104.31488,77.28192,96.87712,77.41952,68.5216,60.73888,72.74016,53.19744,54.4592,42.4896,48.22752,50.06784,84.83264,68.48832
A,K,1,11,-370.91104,-299.01504,-310.38784,-321.6976,-359.03808,-350.59232,-416.06624,-340.95232,-422.05792,-472.06304,-508.10528,-521.21344,-571.66208,-615.55776,-610.77216,-590.90592
A,K,1,12,-109.95168,-109.80608,-74.0256,-37.01952,4.99584,-88.08864,-108.31968,-50.4,-61.3904,-125.312,-75.25824,-77.58752,-46.3888,-82.31584,-53.56704,-31.18528
A,K,1,13,218.30624,143.32608,200.75232,156.7008,167.56928,139.74912,148.03744,101.87072,121.08544,84.68992,98.76768,83.66656,114.35168,109.23104,109.66496,118.19904
A,K,1,14,60.0768,0.30528,29.4544,27.42496,38.65376,10.9184,2.85024,16.41632,44.39456,-6.59968,11.73536,14.04032,11.2048,33.40352,35.28896,53.97536
A,K,1,15,-207.9824,-175.29344,-208.64928,-203.59744,-231.43424,-226.06624,-313.47392,-227.8784,-226.80448,-268.13024,-247.7568,-275.57152,-291.75936,-330.26208,-293.39616,-299.24864
A,K,1,16,-20.50144,-14.29504,-19.45408,12.8944,-3.8384,-1.11936,-17.42592,12.12096,14.7152,0.19424,3.84544,38.808,5.6512,8.72704,6.39136,41.73856
A,K,1,17,27.61984,41.288,47.30752,13.81952,10.30048,18.30016,2.37536,37.57184,38.8,37.584,24.54496,30.80992,23.51104,46.9504,38.88608,90.79872
A,K,1,18,115.76928,85.53088,96.75776,72.36064,118.60864,81.24,82.11808,85.63136,67.2224,52.76224,42.02496,42.88832,33.84256,37.93664,47.39264,51.37856
A,K,1,19,115.056,97.61184,83.9216,95.30176,88.50624,102.99616,83.71648,130.63104,94.74304,78.81248,88.4192,79.8656,92.56832,76.30304,89.63904,88.66464
A,K,1,20,22.13984,82.31008,37.67392,61.50848,40.58272,57.02528,3.28608,35.98656,42.52,19.16128,36.42048,17.42688,25.83328,30.52576,30.76384,39.18336
A,K,1,21,28.32992,31.44192,23.42848,37.10016,46.66976,22.47776,2.98368,40.3648,16.31264,22.92544,5.66208,47.14528,15.38944,32.05664,16.91264,62.4064
A,K,1,22,-21.1824,-75.16384,-43.47072,-62.98944,-32.59744,-75.15712,-43.1296,-36.30816,-2.58688,-63.63616,0.5424,-13.02944,-7.17344,-9.10688,-3.99552,23.21632
A,K,1,23,-59.81824,-88.51328,-61.3296,-38.0112,-47.01824,-66.92896,-37.31232,-71.81248,-53.62112,-79.92928,-79.30752,-82.64352,-39.32192,-80.89248,-56.27904,-45.31328
A,K,1,24,-287.74688,-391.86176,-372.31168,-385.95648,-449.15968,-493.57312,-565.08128,-502.82528,-556.30496,-679.20288,-659.72992,-732.1056,-775.18272,-818.0832,-806.29184,-810.02016
A,K,1,25,71.36704,3.35872,35.26432,-40.05056,7.9744,-42.3616,-45.93984,-19.68512,-3.91008,-44.51264,-26.17568,-28.8064,-14.55456,-15.45472,-22.79424,-3.15776
J,K,1,1,-71.54816,-295.7952,-129.35904,-154.0176,-217.08224,-271.8816,-88.21824,-213.20672,-333.11584,-297.26912,-225.26976,-290.5136,-302.15904,-274.1984,-141.68352,-172.66656
J,K,1,2,224.49184,10.75808,122.34784,64.75296,135.44384,62.00544,147.23296,95.25696,68.12768,109.1472,118.29664,82.09408,131.01248,98.84928,140.1568,149.30272
J,K,1,3,386.75104,451.2608,311.9472,347.85088,241.98976,219.37376,208.05408,161.47712,121.58656,136.41824,117.61088,102.77728,71.6992,94.90464,31.75872,63.03072
J,K,1,4,417.18304,68.43168,303.73152,140.32992,219.1344,134.83936,139.39776,129.23584,83.8736,76.1904,96.23104,92.62016,75.63808,67.80896,70.77792,73.19296
J,K,1,5,190.40224,396.69408,185.31456,294.53632,188.86848,233.28256,188.91328,222.784,154.91488,155.37952,124.90592,94.07104,67.84448,84.1952,74.94688,83.3888
J,K,1,6,-100.86848,-288.32,-140.19168,-284.97152,-315.88672,-347.6,-305.87264,-325.39328,-398.62208,-408.66464,-429.83648,-455.9072,-471.34944,-500.23104,-499.04096,-475.74432
J,K,1,7,-145.04128,-4.91264,33.04192,28.17248,-24.63232,2.4416,-3.22368,26.77504,14.39392,34.62016,56.98592,-8.04672,25.76576,22.78144,37.76864,47.34272
J,K,1,8,85.93792,454.30336,212.83008,309.59936,228.54816,280.75872,206.1488,197.4272,161.75072,150.25984,166.82976,139.95072,169.06976,146.80896,163.50592,107.56352
J,K,1,9,361.16608,291.06336,350.04992,300.08864,308.21632,249.35456,257.36384,258.59392,179.2048,235.61408,250.16448,156.45696,181.43584,175.59008,168.75712,164.75136
J,K,1,10,235.62464,288.93408,180.62464,262.27904,197.8496,212.816,190.61504,204.01792,113.34208,155.3552,132.50304,127.2832,85.624,146.1936,144.11744,183.2032
J,K,1,11,-141.27168,-217.31424,-172.68352,-196.24032,-223.79424,-310.73792,-143.28512,-234.4784,-280.48352,-334.46752,-320.67424,-350.92928,-373.56192,-362.92128,-337.22336,-365.28256
J,K,1,12,58.52256,103.32096,97.40672,127.29088,110.44736,124.95456,195.664,150.60704,0.86848,163.4384,76.81504,217.65184,165.05312,251.40576,219.46592,271.5424
J,K,1,13,285.18528,479.92736,322.3248,415.64032,328.54784,323.6736,271.11072,320.22208,221.5392,250.12128,215.99904,271.66048,244.98624,225.92128,256.73376,277.25024
J,K,1,14,8.6576,194.54272,95.5408,175.16736,90.3792,122.76288,148.90144,132.69984,92.75456,143.16992,96.28096,165.49952,153.9168,156.90624,143.13184,183.66688
J,K,1,15,-39.36768,-74.42336,-42.02752,-60.20864,-128.23616,-161.09472,-13.3408,-124.1696,-244.25344,-69.29312,-141.14656,-49.48704,-92.19488,-69.2336,-125.73728,5.88864
J,K,1,16,108.15008,32.63744,111.16704,60.46592,71.70272,67.7072,116.17632,59.05792,88.944,96.44128,121.9248,111.96128,87.32384,85.00608,169.89152,114.64896
J,K,1,17,132.73408,97.45408,123.01504,132.23744,75.8384,77.3088,144.29024,137.68096,118.80352,114.63904,137.05248,126.76416,103.70528,139.19264,175.05344,157.86784
J,K,1,18,173.24224,259.79328,168.63328,259.66048,181.68832,207.648,199.25888,187.73792,149.83584,142.18688,162.78816,107.1152,111.84704,139.25056,124.6832,132.01152
J,K,1,19,237.736,295.16064,264.09952,268.80928,257.3392,244.98784,312.26624,240.6976,245.52928,206.69056,232.16128,255.50112,203.9168,273.15008,236.83648,220.3824
J,K,1,20,269.11008,119.72448,233.18112,182.75296,179.8896,111.6032,154.79328,124.61152,127.70848,149.1168,111.4256,133.60384,110.88352,127.2688,127.992,116.20576
J,K,1,21,230.64992,187.4624,225.3472,204.23488,186.94048,148.07392,282.05728,185.27488,175.46656,192.8384,214.5792,155.54528,199.57408,189.48,280.4288,189.26976
J,K,1,22,-46.13088,158.33696,35.16928,90.28832,50.81088,101.22848,97.28544,137.59968,72.47008,221.49888,156.02336,159.91392,129.264,150.9728,224.82048,262.63424
J,K,1,23,-8.87232,66.43168,47.16992,75.9344,68.04352,88.58464,65.89152,59.52928,-43.85376,70.23328,15.86944,54.3728,24.42528,110.5392,90.48352,99.18912
J,K,1,24,-311.46112,-201.42944,-229.56768,-326.08288,-296.1616,-405.1664,-276.45056,-392.0768,-580.38464,-395.07648,-564.0752,-457.18272,-623.7072,-530.43968,-488.28672,-529.95776
J,K,1,25,25.1984,239.29632,76.99616,199.97248,43.86816,129.74624,131.52224,139.9584,55.01216,131.20288,148.45952,150.13184,151.3792,146.95232,197.00544,156.5664
A,L,1,1,-353.28064,-226.93856,-316.03424,-294.93408,-310.80512,-289.78304,-315.68128,-350.06496,-375.04896,-390.32544,-378.2416,-371.23904,-396.31488,-431.57024,-421.84704,-423.3536
A,L,1,2,-17.84928,34.21824,-31.61056,6.83904,-7.92096,21.8448,4.78112,11.94752,20.08096,2.936,0.21024,23.40128,-1.79424,18.99712,34.48032,48.83552
A,L,1,3,303.41216,214.50208,176.29152,123.97536,118.09248,105.9424,85.15296,79.51424,69.472,48.44448,55.49344,49.17408,51.95104,16.77248,30.63104,7.07072
A,L,1,4,35.7936,156.51552,73.34144,127.58496,79.736,78.4128,70.30816,64.07456,58.82976,48.36992,33.2864,41.9632,31.16032,29.25184,34.62592,41.4448
A,L,1,5,208.10624,93.12352,147.96928,104.72512,120.29568,88.98272,117.3344,82.79936,82.80128,64.8816,50.62784,38.6896,40.93568,28.95232,45.28032,38.08544
A,L,1,6,-261.9424,-216.55872,-324.18944,-300.1584,-355.22816,-385.48256,-406.47872,-422.38816,-447.57824,-447.86176,-503.392,-520.41088,-544.98208,-634.17728,-629.89888,-621.57152
A,L,1,7,-24.87776,-92.09504,-71.792,-75.4288,-76.64992,-93.85184,-69.17984,-90.8608,-68.82912,-91.41664,-76.39488,-65.31104,-85.84992,-100.4992,-86.89792,-105.60928
A,L,1,8,247.92448,90.72224,159.40224,104.31232,134.24192,110.9184,106.08928,80.27232,80.66912,79.86816,64.12192,80.39584,64.26848,62.28384,64.89504,90.02784
A,L,1,9,146.36832,141.42752,134.42144,117.4128,123.70144,135.52736,118.96416,104.80704,104.12704,75.2416,74.99456,97.5344,67.88448,69.64384,81.19968,67.74656
A,L,1,10,108.49792,85.03808,111.8464,78.55264,97.09984,84.62592,79.04832,59.82016,74.10784,60.51072,58.42496,47.8816,54.09344,54.80736,88.98912,72.0208
A,L,1,11,-349.51296,-275.0544,-298.55712,-336.13504,-376.42496,-336.5248,-372.1184,-367.32,-435.38208,-429.06144,-487.25248,-489.4624,-521.69696,-581.92448,-581.59456,-569.08896
A,L,1,12,-82.9056,-79.32768,-53.05568,-37.5088,4.51296,-64.90528,-67.43456,-54.46816,-57.5568,-86.95232,-53.05056,-45.96192,-6.184,-50.3872,-22.62688,-4.5952
A,L,1,13,231.14816,156.39072,207.2,154.56512,164.4864,147.04256,160.71264,97.37216,120.74656,93.1008,102.84192,89.032,121.22944,113.38176,113.28864,120.12736
A,L,1,14,53.536,-5.93664,18.19712,6.92832,17.09728,-0.63424,-1.54432,-8.13344,24.5552,-14.6,-2.90528,2.264,1.34176,19.60864,19.56384,34.34112
A,L,1,15,-166.79584,-137.6,-178.3056,-192.0784,-222.936,-190.48512,-256.08096,-222.2096,-209.00384,-211.26848,-205.52672,-223.58112,-226.29248,-274.6304,-236.3056,-244.4384
A,L,1,16,-8.33248,10.72256,-0.8144,18.98144,6.22944,17.34976,8.19712,17.78592,24.80384,22.95744,22.08672,58.73856,29.39104,29.52512,28.14496,61.78624
A,L,1,17,32.77504,49.52608,53.11264,6.41408,7.46368,23.12768,14.40864,31.0208,36.27968,46.8096,28.20704,37.14784,32.2272,52.28384,43.58912,93.12352
A,L,1,18,128.52864,98.4384,106.19072,74.92352,120.67936,89.48192,93.95424,85.7808,70.25824,61.82496,47.90816,48.968,40.75456,43.55008,52.44928,55.33824
A,L,1,19,139.504,120.52672,101.44864,102.23552,93.75904,121.15552,108.56896,133.95424,102.78176,98.35296,101.09472,95.232,109.68064,90.45472,103.73696,100.93376
A,L,1,20,39.29088,107.752,56.85696,71.76608,51.45376,77.11136,29.97696,44.6432,54.57504,41.10848,53.25504,36.11296,46.37472,48.0064,47.85408,56.02144
A,L,1,21,53.11296,59.69024,43.7904,43.3184,53.50848,45.53632,35.6,44.3808,25,51.20288,24.35392,69.62048,41.77312,54.10272,38.60928,82.2416
A,L,1,22,-23.2496,-73.16256,-52.84576,-83.72128,-57.3408,-82.49056,-39.51648,-65.4576,-25.51168,-65.46112,-11.70112,-20.61408,-10.90624,-20.45344,-17.8608,3.86592
A,L,1,23,-58.4032,-85.2864,-64.04448,-55.55872,-64.72064,-71.76352,-30.72736,-94.17376,-69.24288,-76.58816,-84.81728,-85.59872,-37.22656,-85.55232,-63.05984,-56.2624
A,L,1,24,-277.11168,-378.83328,-367.52256,-420.00512,-477.48896,-491.82624,-530.59136,-548.49984,-585.70944,-647.91296,-654.47744,-713.00224,-739.36608,-800.1632,-795.54496,-813.28704
A,L,1,25,87.84608,20.50272,43.2752,-40.53152,1.22688,-29.64416,-20.8832,-26.93504,-5.672,-23.24384,-15.75616,-12.68288,6.76928,0.27776,-8.84032,7.26336
J,L,1,1,-83.93056,-353.45952,-200.35488,-228.10112,-231.2016,-261.16064,-208.96096,-275.1344,-308.45472,-355.30688,-251.81184,-305.11584,-358.8224,-330.0416,-213.01248,-274.66048
J,L,1,2,191.48864,0.4848,65.85408,45.28416,116.83328,58.91456,102.01856,72.6736,65.43968,86.36,102.35168,68.94592,108.79744,76.68992,116.28768,119.11904
J,L,1,3,378.95392,435.67648,293.97856,333.60992,238.928,220.6272,194.9728,154.98752,122.72544,131.51744,115.4016,101.03744,69.23136,92.90752,29.46272,60.93632
J,L,1,4,404.86272,66.20384,277.91168,135.5952,213.46272,136.024,122.62144,123.12992,85.35072,70.6592,92.94464,89.88416,70.97312,64.1072,67.12096,68.65184
J,L,1,5,188.44672,390.24064,173.11008,287.95968,190.11296,238.76512,179.13248,219.35712,158.35936,153.61952,124.63136,94.54592,66.52448,82.97024,74.23648,81.3568
J,L,1,6,-116.68832,-316.09312,-215.59776,-329.14688,-329.88576,-325.21952,-421.16832,-374.54304,-365.0816,-456.94848,-449.1776,-457.77888,-522.58784,-546.93792,-559.56512,-574.75456
J,L,1,7,-169.26112,-16.81408,-27.24736,7.39264,-39.19008,9.6656,-63.65056,1.00032,24.41376,8.92544,43.18528,-16.89248,-2.02336,-2.82848,5.92864,3.33312
J,L,1,8,84.56672,442.59488,198.05536,297.91008,231.33344,288.05504,189.05536,192.63776,168.89792,148.09376,166.00544,141.5408,165.27712,145.07968,160.488,103.2144
J,L,1,9,355.9008,279.60736,319.83456,286.1632,307.1712,257.16416,231.65024,248.95232,187.27232,228.64832,247.84384,156.27936,176.72992,170.48416,164.65504,156.64544
J,L,1,10,230.90528,276.66976,157.24608,248.29312,198.95008,219.54816,168.90944,196.05088,121.30208,149.79776,131.8496,127.88864,82.12896,142.43808,140.1744,176.73728
J,L,1,11,-161.84032,-271.21792,-265.53504,-269.53856,-239.99456,-288.31456,-291.01856,-302.70624,-242.184,-402.10944,-351.98944,-360.70944,-444.15936,-431,-421.93824,-490.9792
J,L,1,12,47.85312,72.79488,31.20832,86.26848,110.41824,153.80288,111.2416,117.01952,39.73216,133.98432,72.59392,223.22816,141.3392,228.75808,189.16544,223.1264
J,L,1,13,277.08128,458.51424,290.13888,391.90176,326.09632,331.86848,236.63296,306.08608,229.78912,239.27808,210.9712,270.01984,235.41376,217.82752,247.2448,264.216
J,L,1,14,-16.65024,159.29728,44.02016,132.61152,67.29632,109.95776,87.95968,95.32384,81.68416,105.65344,67.22464,139.58432,116.25792,120.09184,102.34304,133.35936
J,L,1,15,-40.84416,-95.8576,-91.48288,-95.27104,-113.60576,-117.40224,-97.29408,-141.94848,-186.4592,-85.12992,-129.8368,-22.50848,-104.58432,-77.71968,-140.34528,-29.27904
J,L,1,16,118.17792,30.70464,82.3232,58.62048,80.59936,89.88416,89.06208,56.6848,113.10016,97.09632,128.53664,126.25792,88.64,87.87616,172.06752,112.09056
J,L,1,17,119.12704,86.992,79.01984,117.11264,69.22752,85.65856,105.26112,121.32864,127.3904,100.44032,130.49056,124.46496,90.08896,126.11392,159.10944,137.50976
J,L,1,18,171.96032,251.3712,149.10144,249.672,184.40704,217.04064,179.53216,182.3312,159.86336,138.82912,163.39808,109.72064,109.10784,136.89856,122.4528,127.71552
J,L,1,19,237.91232,283.58112,238.11904,252.33536,266.032,264.6688,280.36704,233.38592,267.54944,201.6352,236.16928,262.6944,201.12512,272.45792,234.39232,214.30464
J,L,1,20,280.79168,119.21984,215.77216,180.1936,192.92608,135.18848,135.24928,126.20672,151.40672,151.77728,121.1216,146.38208,116.144,132.95904,132.79808,118.47136
J,L,1,21,230.64096,173.48064,187.07712,184.02784,195.54944,174.10368,236.17312,172.08512,206.2816,184.05152,219.152,165.5776,194.70144,187.03136,274.87264,176.86624
J,L,1,22,-67.05152,104.9008,-30.86944,31.00736,26.76,94.0928,9.90848,85.79392,66.04416,171.42144,119.97472,131.03648,77.7744,100.2064,167.21952,190.15232
J,L,1,23,-32.02112,30.19456,-12.136,34.05536,47.70976,85.17152,-8.69344,18.74592,-44.08608,32.46176,-11.73504,34.24224,-18.93088,70.3376,42.83776,39.50976
J,L,1,24,-351.91328,-257.35392,-362.28544,-405.64288,-333.512,-393.38144,-457.4848,-478.12736,-553.13504,-487.66656,-613.74976,-487.93472,-719.46528,-630.24864,-607.10752,-700.92896
J,L,1,25,18.28384,208.74912,36.15232,159.29504,44.01952,142.90784,66.58112,111.69728,77.34464,106.48544,139.54432,147.8448,127.49536,126.29696,171.128,117.55744
A,I,1,1,-769.19072,-675.02304,-677.66048,-605.4848,-659.53216,-636.16448,-737.10016,-784.45632,-780.91968,-792.50624,-885.28896,-916.38272,-863.5616,-875.63392,-898.15936,-840.22528
A,I,1,2,-123.6768,-114.97632,-180.54208,-125.59168,-200.70112,-195.78048,-186.968,-175.14272,-176.64704,-166.51648,-178.6544,-155.74912,-160.728,-125.90304,-107.33856,-90.94304
A,I,1,3,65.51584,-7.17216,4.64,-27.776,-11.21472,-18.32064,-21.47936,-4.89824,-5.29504,-32.18624,-5.5872,5.12544,12.32256,-22.27456,-2.86176,-12.40928
A,I,1,4,6.95744,80.91424,-28.68768,44.552,-0.0704,6.86944,-2.40544,-8.63744,-9.08256,-39.02656,-48.15392,-35.71904,-29.37952,-12.65792,3.15296,14.60928
A,I,1,5,14.70432,-93.08,-18.44256,-19.77088,-0.1648,-30.72576,24.91744,-7.43328,-5.7808,-14.23872,-8.12384,-10.63264,-8.89728,-25.90528,10.27936,10.21216
A,I,1,6,-407.88416,-345.36672,-467.01184,-498.8512,-541.66048,-613.66144,-637.90528,-671.9888,-741.26496,-809.65024,-912.75968,-919.94272,-903.5664,-964.70752,-935.07552,-747.23168
A,I,1,7,-136.61568,-218.18176,-219.10432,-240.2432,-272.74272,-286.61696,-308.52096,-240.10048,-247.90944,-383.19072,-356.82912,-371.88736,-351.07424,-344.50048,-303.89728,-283.77792
A,I,1,8,-14.82656,-148.9584,-72.70912,-75.85728,-0.8016,-44.74816,-47.74624,-40.56896,-24.07968,-36.78048,-56.93568,-22.38976,-28.78112,-14.59456,-4.45408,39.02944
A,I,1,9,3.39232,-1.78528,2.2528,-14.72768,8.0144,13.01568,-16.43584,-13.64768,-12.37856,-32.0304,-23.93696,11.84096,-8.85632,2.97632,14.28096,12.4336
A,I,1,10,-119.99328,-133.8112,-77.11072,-112.53088,-53.04352,-38.93152,-71.3264,-95.76896,-71.85536,-68.98016,-41.40448,-70.61152,-46.44224,-33.60448,10.81184,16.31392
A,I,1,11,-776.16096,-720.08736,-682.55168,-668.39872,-708.91456,-698.59104,-854.9664,-888.4032,-936.66848,-1124.69024,-1187.29824,-1112.06112,-1194.70752,-1253.51392,-1173.8384,-1022.6784
A,I,1,12,-599.32448,-616.168,-547.73792,-442.95296,-366.7888,-474.29856,-599.568,-542.54752,-559.39008,-631.72576,-608.99296,-672.69024,-605.36768,-654.03808,-569.92896,-414.38592
A,I,1,13,-98.18272,-153.85344,-39.47552,-68.71136,-38.95584,-33.17568,-30.75392,-118.14784,-51.34016,-70.5264,-72.8304,-112.59712,-36.44832,-14.36864,-4.3184,39.26912
A,I,1,14,-47.4048,-111.70144,-90.65728,-78.37056,-69.73792,-69.0464,-98.68672,-99.43392,-68.00992,-148.59488,-127.11008,-99.47328,-126.14048,-77.0912,-36.26016,-2.88032
A,I,1,15,-519.304,-507.74528,-542.06944,-508.0176,-538.64608,-579.43424,-576.32768,-500.35136,-448.4496,-546.57696,-620.31712,-637.656,-703.33152,-740.3936,-661.00128,-601.65376
A,I,1,16,-127.47776,-141.48512,-194.49888,-153.78336,-190.48928,-168.01952,-172.77664,-147.39808,-135.95264,-182.76192,-153.12544,-143.1568,-223.81408,-137.39008,-114.74944,-71.7664
A,I,1,17,-89.00384,-82.05824,-101.00352,-172.42464,-166.6144,-122.24128,-154.60672,-101.71776,-80.31776,-106.14368,-145.832,-151.32128,-151.52192,-98.35168,-124.8576,-38.80192
A,I,1,18,-65.02816,-89.18112,-97.41152,-104.26784,-12.76064,-40.64736,-33.92416,-23.74496,-53.78016,-86.83456,-89.472,-56.72736,-56.7808,-44.93472,-23.58656,-1.66112
A,I,1,19,-207.31072,-199.60992,-143.32704,-132.36992,-108.75008,-89.23296,-122.36672,-83.8928,-103.83392,-113.71584,-139.64704,-157.77568,-112.85056,-84.04288,-46.64384,-2.88896
A,I,1,20,-162.33408,-137.66048,-203.3424,-178.28896,-215.1248,-162.23904,-251.62496,-188.33248,-173.56512,-197.144,-170.09568,-182.40288,-191.11232,-156.49056,-125.45824,-85.38784
A,I,1,21,-259.09792,-259.10496,-262.14976,-214.28512,-200.34656,-286.69312,-281.43584,-241.30848,-243.36288,-256.52288,-333.7328,-255.74624,-245.1168,-212.64192,-188.89472,-95.26656
A,I,1,22,-343.40032,-384.25024,-324.11872,-388.88384,-297.7584,-309.39008,-273.24,-285.76,-265.5184,-343.32128,-404.92768,-357.41568,-295.91616,-280.52608,-235.20512,-167.64544
A,I,1,23,-295.7936,-320.04992,-248.8368,-201.03488,-185.17568,-261.9664,-238.09568,-265.16128,-265.64544,-315.40864,-285.4128,-326.1968,-301.29696,-307.76992,-270.50304,-245.58496
A,I,1,24,-473.15872,-534.34368,-569.39488,-680.12672,-733.43232,-808.21856,-880.25536,-798.09632,-808.912,-980.04768,-1096.13056,-1104.07584,-1159.14464,-1202.58784,-1116.97728,-956.07296
A,I,1,25,-236.05728,-305.63104,-227.4624,-318.0576,-339.72992,-343.93888,-399.33824,-378.14336,-272.0848,-319.5472,-359.6752,-397.00864,-359.43648,-333.30464,-306.50432,-239.72512
J,I,1,1,24.06016,28.39104,153.07872,63.49952,112.08096,-12.01984,121.96224,137.05056,106.70912,-57.82752,97.2832,236.84384,166.54272,166.60544,421.81984,550.73632
J,I,1,2,288.768,78.40576,213.30208,55.27072,154.17536,148.73408,190.18304,120.17824,168.7056,158.44992,178.77888,174.23136,217.61088,166.20768,200.20512,231.21216
J,I,1,3,386.75968,515.82368,326.1952,378.95872,254.72064,243.52576,228.0752,175.968,119.89408,160.02944,144.44544,115.55872,69.71424,100.65856,46.62112,78.28928
J,I,1,4,450.896,57.17088,336.95232,162.97408,249.99776,161.69216,142.83712,150.45888,72.85568,81.93824,115.32672,124.65632,115.09312,100.51456,91.15264,96.78432
J,I,1,5,195.68544,424.168,228.85856,310.21824,190.65024,276.15136,194.87232,222.21504,171.2832,185.22816,146.74848,104.22912,61.97792,110.44736,90.29984,99.50848
J,I,1,6,134.18336,-48.91456,2.97856,3.72448,-36.73248,39.29632,-34.35296,0.80352,-1.88064,-42.6464,77.77184,160.02432,164.03264,174.82688,463.3008,447.1936
J,I,1,7,22.38336,87.39936,115.79328,91.61696,117.2,82.96096,204.26208,151.92,24.66304,159.90656,160.56896,193.95456,220.82912,240.63712,284.50176,310.64512
J,I,1,8,99.74848,483.7024,264.91808,404.95552,235.50368,312.43488,249.8256,250.40448,176.50336,160.52896,200.38848,175.4256,205.44928,172.86176,207.56416,132.83648
J,I,1,9,461.3344,378.46368,410.48416,384.52544,375.272,293.11392,315.26784,303.96384,250.61024,289.7696,324.86464,209.94976,241.04128,210.60384,219.15008,235.90592
J,I,1,10,273.94176,375.58784,209.03712,347.37984,296.28544,243.52896,194.5936,240.81984,168.06528,232.35232,145.12352,174.03296,131.0768,185.79264,206.64832,229.01312
J,I,1,11,51.11296,149.79648,162.52736,150.50656,153.33216,-2.84288,72.4432,196.71424,-17.7984,44.51424,302.232,170.87296,184.78816,364.67072,525.9296,664.91872
J,I,1,12,187.0672,323.4736,363.49888,378.66656,332.46816,211.34752,382.78464,328.43264,198.97312,353.03456,211.43296,485.12672,394.65856,568.4592,695.5616,750.31776
J,I,1,13,332.47712,631.44064,403.4784,504.6336,438.43328,406.77024,258.62656,424.07648,308.8032,299.39104,227.18656,370.56224,325.9616,283.44672,356.06528,341.88704
J,I,1,14,104.98176,276.13632,222.57024,270.49088,240.04224,231.38016,233.86112,246.15808,167.78656,250.0608,257.65728,255.1312,302.79712,339.37792,305.51968,357.84864
J,I,1,15,96.28352,176.47584,201.02368,230.07424,67.46144,278.848,309.09888,297.90944,71.9216,165.576,246.43104,282.24736,290.2192,431.9648,407.17568,831.18272
J,I,1,16,257.1024,68.96224,218.81248,119.31648,176.55136,178.09024,204.4032,169.67872,139.01568,218.5728,207.2176,127.44992,282.74176,247.11104,302.44352,274.0656
J,I,1,17,259.72032,161.62176,162.06784,201.98976,217.3616,146.0432,247.80288,258.96256,186.8288,167.5648,197.18112,211.64704,222.66848,210.18976,298.18272,335.22368
J,I,1,18,215.61024,283.59552,208.86048,364.79168,242.504,267.15072,247.13408,209.36128,153.14144,173.78816,238.0192,155.41216,157.7584,184.09152,181.93184,181.24192
J,I,1,19,294.97632,495.47872,346.05376,411.02176,363.59872,330.8496,387.13344,327.59232,343.31872,240.17632,270.44992,351.85632,333.18144,392.43552,377.21312,376.33408
J,I,1,20,304.84256,128.4544,283.95008,190.85344,277.61664,122.30496,234.77152,181.94944,179.27584,213.30272,178.21344,161.4448,177.11808,218.54944,217.67168,223.032
J,I,1,21,342.12864,320.25088,384.69216,355.21376,230.66272,300.18848,412.2,336.06624,294.0368,235.27488,369.20672,348.7184,348.20704,383.21216,488.94976,403.976
J,I,1,22,38.68928,352.00128,91.42112,301.7744,256.26784,290.4704,249.74112,272.13696,235.00928,208.34144,361.9584,417.14688,339.968,409.53536,492.62944,540.94656
J,I,1,23,105.61376,274.03744,216.77632,275.20512,156.91424,230.47424,221.38432,196.50112,72.9232,280.35648,145.91168,196.9216,229.93536,338.32544,289.90112,455.40928
J,I,1,24,110.72256,131.29312,23.8416,79.85664,104.37152,89.93024,263.13952,224.13504,3.52992,60.19872,193.73376,277.00672,158.17792,403.8448,683.97984,645.53664
J,I,1,25,86.45824,422.432,181.6048,229.44672,218.08704,222.12928,243.42432,410.68992,233.77824,244.60064,262.36992,346.60864,354.83776,378.18592,463.62144,439.32512
A,D,1,1,-40.91008,-23.46432,-92.3728,-41.74048,20.9856,-11.64736,-63.26112,-7.13568,-91.29536,90.97408,26.12832,1.3744,33.77376,12.74816,-33.32352,-53.3008
A,D,1,2,-50.89984,-185.75488,-66.744,-52.18752,-49.53504,-69.21312,-46.79904,22.42912,-125.55552,-96.05248,-49.6848,-91.94752,-72.52864,44.98816,-28.42368,-0.00736
A,D,1,3,-89.60256,18.21184,-114.91712,-57.68032,-61.536,-10.8704,-50.07072,-25.968,-90.76768,-38.66368,-19.57696,5.6288,8.51872,-28.03648,3.77824,-28.98944
A,D,1,4,5.73408,-2.70208,36.27264,19.25408,-12.12,-46.57472,0.09696,6.56928,-2.5344,-52.05024,-84.42304,-16.96448,-41.06432,4.1664,-9.976,-7.11936
A,D,1,5,-111.93376,-73.59072,-24.336,-36.18816,-27.44992,-57.44576,-19.62016,-4.31072,-49.54272,-7.84256,-39.63008,-26.736,-45.58016,-8.30272,-20.40064,-1.06112
A,D,1,6,36.11488,-33.57856,-2.93696,26.54624,-23.99776,-4.41504,8.34464,49.14752,-72.1568,87.93184,42.34816,-1.10592,-14.29088,15.87168,49.2128,199.64864
A,D,1,7,-17.54816,-6.7408,-43.69984,-81.25664,-87.44224,-111.64,-11.34784,-15.54816,-60.72768,-60.512,-81.5184,-60.30176,-166.6704,-29.36768,-72.51232,-27.3504
A,D,1,8,-92.6672,-47.22272,-52.96384,-47.94848,-27.05408,-71.59648,-53.53024,-54.63904,-40.73216,-46.6448,-20.45216,-74.39424,6.46624,-51.35648,-13.4752,22.6784
A,D,1,9,-14.10912,-67.94016,-69.21792,21.58528,-1.25056,-42.8816,-3.06016,13.37408,-35.9648,-69.10432,11.87424,28.34848,-29.664,14.05856,-41.9536,19.58592
A,D,1,10,-113.25024,-117.0128,-68.792,-44.51136,-85.15424,-38.34912,-30.57184,-53.39808,-70.6608,-27.23936,-17.0144,-24.2944,-54.30912,-42.75808,-3.3248,11.31328
A,D,1,11,-26.2944,-31.3408,81.88416,0.69504,10.70944,56.35584,4.01568,58.65184,-7.2064,-29.68832,-105.68032,38.63808,-82.24544,86.26592,-29.32608,-41.38496
A,D,1,12,-20.07328,34.49952,54.66272,49.23552,97.49504,33.71616,42.43136,152.94432,-44.64064,86.14112,-48.51136,52.61568,30.56512,68.93504,-44.728,110.53216
A,D,1,13,-98.59808,-59.35616,-0.0736,-30.21504,-66.18336,14.73792,-44.36096,-88.23008,-108.8688,-69.0608,-78.02112,-10.07776,59.74624,-43.31392,-3.89216,5.9744
A,D,1,14,-22.86432,-145.46688,-90.54944,-3.63616,-165.8784,-81.96736,-9.93952,-105.26656,-84.83392,-161.74112,-64.33952,-97.7856,-89.37216,-40.496,-99.66432,-30.68832
A,D,1,15,-81.1328,-85.23776,-111.99712,-152.66688,-103.17312,-273.48384,-147.40512,-15.94208,-81.4752,-135.89216,-121.69952,-100.62592,-200.93312,-198.76832,-176.11072,-177.93632
A,D,1,16,-40.59808,-12.12704,-8.77856,23.3024,42.65888,-105.30528,-74.09248,30.296,-14.60384,-88.48288,-11.504,-0.83552,-94.49312,-66.00224,23.08832,43.93696
A,D,1,17,13.77152,-6.02816,54.67072,-40.44928,-0.85824,19.94432,-53.17472,35.78976,3.45568,45.11392,42.9728,7.71488,33.45952,-14.45376,49.80512,39.85344
A,D,1,18,-50.50272,-75.83168,-44.19904,-50.35744,23.13632,-35.19072,17.29024,-23.31168,-40.03296,-80.77024,-25.73344,-57.3872,-43.83744,-10.11744,-17.28352,-2.91392
A,D,1,19,-122.31104,-60.672,-95.02336,-58.91776,-46.8848,-90.32,8.5856,23.15264,-90.78784,36.77792,11.16992,-71.47776,-63.43776,-36.61728,-11.53664,-38.90688
A,D,1,20,-26.28128,-6.96576,-79.5008,-12.10304,-92.21728,-76.00736,-27.54272,-27.07488,-65.35776,-80.128,-28.8688,-18.78176,9.88288,-49.53408,30.54688,1.42496
A,D,1,21,-94.20672,-75.02144,-130.5088,-34.71104,-70.86816,-103.29472,-166.1648,16.12416,-168.03008,-74.07968,-148.58208,-45.56064,-51.19232,-44.90624,-61.1888,-119.10592
A,D,1,22,-43.01792,-145.33024,-30.35904,-89.09856,-76.93472,-111.75136,-62.39488,-21.56224,-78.9968,-74.34336,-32.75296,-78.65632,-21.0752,-20.17376,-7.70976,-48.91712
A,D,1,23,-66.36032,-52.6848,6.09792,-26.71072,-14.9792,-43.87424,-69.936,5.81824,-56.99648,-61.26528,-13.96832,-30.67328,-68.01216,-85.0064,23.68864,-60.04928
A,D,1,24,53.85568,-82.12864,34.2848,15.87456,-118.38528,-130.4528,-67.04448,-2.22368,-86.6528,-79.1216,-65.73696,-108.87264,-62.21056,-98.25088,-114.03392,-39.88672
A,D,1,25,95.34368,15.66656,-10.19424,4.55712,-35.78624,-128.81472,-27.12448,8.91168,-52.14432,-67.14944,26.6928,-31.68,37.68448,-30.66848,-15.6128,57.82784
J,D,1,1,114.3648,383.04928,300.6,362.43936,343.77024,325.93568,377.24064,435.46016,358.23264,346.79584,467.4672,566.17312,509.49536,537.88032,693.57696,690.2704
J,D,1,2,275.81376,68.12416,186.99648,-3.56,102.70368,110.2176,155.536,165.2176,188.0016,162.93088,178.94624,129.72384,127.38304,108.75008,110.99168,133.89376
J,D,1,3,187.01472,235.60928,113.59968,149.36736,50.54208,81.24352,125.52672,84.86752,-17.72,71.12768,74.17856,38.04416,-14.68896,41.6672,12.06336,57.29984
J,D,1,4,230.12512,-6.85824,231.98368,109.68608,172.15392,76.61408,28.61632,82.24896,-4.90304,30.31808,31.7328,59.8848,67.00416,57.9488,47.50528,47.01024
J,D,1,5,27.45696,87.28832,80.46976,103.09184,10.07232,142.44992,52.27904,94.10112,65.90752,124.00096,80.26592,25.38528,-46.16096,65.85216,31.15008,51.03936
J,D,1,6,297.98464,182.672,260.62784,267.06944,242.24096,335.59584,289.1968,398.02944,383.50528,443.50176,532.26336,601.7392,519.8608,544.4304,680.9248,673.05952
J,D,1,7,80.89984,110.83424,215.79392,141.47104,162.14496,89.5088,241.54944,215.78816,91.2816,258.13024,235.56704,265.50176,206.57056,236.42144,217.4336,230.48544
J,D,1,8,14.67584,134.08224,141.87904,271.62112,85.24,156.72896,138.96288,148.40864,44.28288,48.08928,117.84608,72.48384,122.26688,81.10944,126.70496,38.47392
J,D,1,9,256.6192,235.16288,185.51584,229.90688,218.57184,82.65056,161.29664,166.34464,131.36192,143.52448,212.08768,94.51904,132.2944,95.7888,89.76384,127.7296
J,D,1,10,161.20768,203.928,56.66912,241.45248,188.27104,68.11936,54.61856,127.5696,50.45248,160.47712,35.63744,110.17152,60.11072,98.0096,128.5216,132.3824
J,D,1,11,214.98592,438.6768,369.43712,462.03744,440.48832,371.64864,438.06848,593.60512,534.176,606.50688,712.93792,635.14144,525.04928,784.62656,843.84064,834.992
J,D,1,12,316.2528,483.01024,488.51584,551.23072,465.09856,358.09344,501.13824,572.08704,406.20928,679.10944,417.44544,693.87232,545.82592,755.20544,742.0496,741.2656
J,D,1,13,198.34272,391.92992,253.28928,343.83296,290.1072,262.79328,107.68672,330.8112,166.78208,148.87648,-22.4448,218.13664,221.11712,153.48096,242.14016,187.90304
J,D,1,14,12.2416,120.09056,121.24288,202.65056,134.86912,46.38912,134.0432,143.11328,28.37632,116.3872,133.544,61.40896,146.0304,221.21248,118.94784,141.5648
J,D,1,15,116.17024,230.94784,231.98272,287.37664,171.15392,292.448,342.22176,398.57472,216.05408,329.03104,305.62592,346.4384,274.18112,395.888,283.78432,680.87008
J,D,1,16,218.82624,1.87712,135.88544,69.43744,206.68896,165.568,167.93888,174.08352,168.97664,226.91136,199.6032,108.3424,254.88576,166.04768,197.09376,175.19136
J,D,1,17,263.72032,143.75296,147.6832,174.97856,213.9808,159.2096,244.248,264.24896,154.576,140.08448,167.96288,168.90432,204.2736,137.86976,242.85504,269.86848
J,D,1,18,121.19872,68.8736,74.03136,257.2624,132.41792,147.02336,169.31296,108.99776,38.59584,76.78048,171.28096,62.2736,52.9968,95.3504,101.27808,94.10624
J,D,1,19,220.88736,348.36096,226.58784,283.14368,245.23168,117.07168,231.15456,177.8576,148.22272,73.656,139.99616,240.05376,227.16096,288.44576,278.52352,256.08
J,D,1,20,297.73376,137.93504,280.15264,202.12096,276.31712,54.9744,224.09952,187.49792,167.79776,183.38272,117.2448,74.58272,119.10688,150.18464,153.96832,174.29344
J,D,1,21,268.55488,212.70976,290.52224,256.48608,94.73984,192.02016,282.6512,272.69312,167.89824,124.8304,229.8448,203.32576,205.95808,278.13472,379.08832,222.01472
J,D,1,22,40.24896,313.04928,79.26688,333.47232,280.2944,309.49088,256.06336,318.82208,234.32128,220.63296,368.33856,400.87872,301.33632,373.44032,424.28064,402.58016
J,D,1,23,112.11296,264.66624,234.87616,296.67552,170.92608,254.31264,204.40448,219.28928,85.55616,297.34208,139.97216,197.14304,184.55072,250.8832,200.07296,361.3504
J,D,1,24,301.67584,326.2704,263.22208,349.20672,404.79264,374.55744,540.10816,581.78752,393.11072,537.30208,556.85344,624.93792,479.04416,747.63616,858.94432,695.74816
J,D,1,25,102.94624,494.15296,189.45088,302.63296,269.18944,225.4464,270.16544,482.64608,288.33888,260.06592,262.8432,316.60768,335.65248,337.20192,362.97248,338.89184
A,M,2,1,-30.61472,-43.42208,-3.2832,-1.36288,4.57824,14.06592,-0.06784,1.56096,-6.04832,9.61216,20.12512,16.2544,-3.2448,-6.28,-3.3792,17.35456
A,M,2,2,-94.07424,-215.49952,-155.17728,-128.91104,-156.09792,-155.51968,-269.80416,-113.0528,-111.608,-123.88448,-273.91008,-253.71008,-276.55424,-287.0976,-282.60064,-282.81216
A,M,2,3,25.00064,-48.19584,-19.22272,-12.81856,52.11424,25.51456,7.11008,28.56736,95.57952,65.40608,79.32064,74.16064,8.06464,-18.37152,75.50016,29.19456
A,M,2,4,138.49344,73.21696,86.88448,104.52288,54.79936,58.6048,57.76256,44.5984,71.16672,88.9648,59.40096,60.57888,60.03648,44.53792,46.87392,45.23808
A,M,2,5,138.62464,105.93664,82.8912,79.1568,97.40032,76.89056,70.39872,95.55456,71.37056,77.86656,68.65696,63.92128,51.26272,49.3024,53.16512,38.68832
A,M,2,6,124.49888,16.92864,77.73728,74.47968,124.45152,55.4016,109.62432,29.66624,137.95008,139.15488,112.20256,114.2464,94.85184,98.51008,116.95616,159.9008
A,M,2,7,-161.8496,-139.4656,-159.44032,-143.19872,-106.15168,-209.71808,-142.19136,-126.66784,-147.99008,-153.1712,-204.86912,-228.53184,-161.71104,-328.2624,-201.12704,-181.74208
A,M,2,8,-103.45408,-86.34272,-145.17728,-154.55392,-133.40832,-182.17952,-180.20864,-188.50176,-87.94944,-164.07424,-225.45312,-179.71552,-211.79648,-248.89504,-397.01024,-335.51488
A,M,2,9,-3.6432,39.3312,7.43264,23.10528,12.74144,16.49504,14.6144,-6.25664,6.71136,8.25824,-19.40768,4.2128,-10.71584,-4.87584,6.592,17.89664
A,M,2,10,30.75072,35.4784,27.6592,52.7232,50.6592,35.40096,24.75072,20.10016,64.05728,56.96672,69.43648,53.59232,32.0576,25.5488,69.64288,60.67104
A,M,2,11,158.36288,46.48672,77.50464,69.62336,95.08864,50.08352,41.29664,38.93888,88.3552,66.01408,43.50176,80.456,77.5184,94.50976,85.45888,116.38592
A,M,2,12,135.80416,49.4672,56.1728,29.12928,88.20768,18.31392,65.17664,94.43264,120.4128,105.80192,72.18656,79.68256,79.29792,77.664,85.1376,126.69472
A,M,2,13,44.34464,-68.33088,-16.2528,-22.16704,-22.94656,-77.24352,-94.30688,-64.25856,-42.128,-48.65728,-37.63584,-37.33472,-141.0752,-104.76576,-90.15904,-67.14272
A,M,2,14,-158.04672,-131.14368,-79.07712,-61.77952,-107.28128,-117.93504,-127.19264,-87.10144,-109.6656,-85.1072,-175.6352,-145.93088,-245.43744,-175.3808,-105.74272,-254.86336
A,M,2,15,-303.02784,-353.25344,-354.93536,-363.5376,-376.13568,-387.05088,-572.1888,-533.08352,-588.06656,-578.55488,-762.10656,-884.45696,-1091.86144,-1129.31776,-1166.07104,-1396.53568
A,M,2,16,44.31552,60.66336,-26.61728,61.14496,7.19488,16.29824,55.176,23.60928,65.24672,40.93248,40.89152,35.37088,-14.13152,15.70304,29.8992,8.87008
A,M,2,17,-2.12864,-5.49952,17.39872,8.19072,29.472,-7.80256,-6.28192,3.87616,14.76896,12.32416,30.29984,23.192,8.12288,-9.83008,34.78816,18.09952
A,M,2,18,22.94752,-30.64736,-32.7296,57.75328,-17.4128,-46.288,-13.656,-11.70752,-16.21152,-5.11072,29.38912,38.01728,36.2992,12.83008,-51.16128,0.448
A,M,2,19,-153.264,-127.88448,-174.66016,-207.19456,-192.02368,-264.84064,-284.55264,-269.576,-209.54944,-205.6592,-336.93888,-330.14528,-417.25632,-466.15936,-357.81024,-364.88704
A,M,2,20,-7.51456,-29.66944,-24.32544,-32.89248,-58.77984,-28.20864,-53.38688,-45.8112,-22.91712,-11.85472,-6.57632,-25.79136,-21.79392,-59.36928,-95.99168,-51.66784
A,M,2,21,136.63872,59.68224,67.39808,58.39968,114.6576,107.91744,95.59232,111.98432,72.2032,95.42272,113.68,67.32448,77.12256,91.80384,113.21632,204.13408
A,M,2,22,45.5568,8.53248,43.64512,41.90944,56.25664,3.46304,27.63392,31.03776,44.45792,45.03968,30.66368,44.60896,54.24576,29.93248,48.03424,43.99488
A,M,2,23,-5.18816,43.41216,6.09856,19.87072,12.57408,-36.78592,-20.0336,-3.7488,58.7392,55.24832,21.75264,-14.77024,46.11712,29.93184,34.22688,72.52672
A,M,2,24,35.752,50.13056,-10.24128,22.10624,28.4976,51.1296,-21.60672,47.08896,58.27136,134.32032,120.98624,100.50144,87.37344,21.4096,103.35392,26.7392
A,M,2,25,95.21312,37.43456,80.82816,83.34752,128.99872,109.1136,64.09472,62.66592,84.85152,65.81504,41.27936,107.76416,129.80064,133.63392,146.024,100.42656
J,M,2,1,-6.16864,75.91808,-14.79744,41.1632,33.04608,17.4064,32.79712,15.33408,61.2592,46.03456,60.168,19.91712,42.7888,31.9648,48.20448,56.77504
J,M,2,2,-250.58656,-67.6064,-66.0912,-94.40704,-107.94336,-222.99104,100.63296,-5.87392,-112.58656,-284.37184,-117.9584,-144.72,-144.37024,-155.52256,-87.86592,-104.31776
J,M,2,3,-17.93184,97.15936,68.57344,178.3168,22.20032,88.45408,121.9648,225.72704,103.46624,201.39872,202.93568,74.96064,171.25056,284.97504,103.89024,377.592
J,M,2,4,188.8608,260.52704,274.91776,181.03936,206.41024,180.89472,147.09728,199.1856,170.36096,137.11648,154.3408,158.3072,85.92096,117.25408,115.376,102.21312
J,M,2,5,323.18496,223.12224,222.60736,244.8304,218.20832,183.95616,204.40128,134.38848,160.81664,124.5584,136.18336,128.61344,105.53344,102.0976,93.7312,96.26848
J,M,2,6,44.72992,296.83008,212.20608,298.71456,140.60096,249.14368,131.59008,346.74752,268.02016,303.90976,234.6976,210.40416,289.26848,314.96928,329.5344,279.21696
J,M,2,7,-23.976,56.85088,-47.09568,-0.75328,-220.56384,8.27968,-103.8528,3.12128,2.97344,-59.2688,-121.8352,46.46176,-262.79264,66.39872,30.96288,-117.01216
J,M,2,8,-57.15904,-137.57824,-112.42176,-45.57472,-158.29376,-61.95968,-119.21472,48.31232,-191.77024,-194.77824,-18.83712,-183.06112,-174.14976,-392.93664,-109.69408,-84.1168
J,M,2,9,111.55264,4.03296,77.45664,27.78368,37.47968,41.32576,8.77888,44.67072,34.93088,51.70656,40.83264,27.62464,14.91584,44.02784,36.3856,51.41152
J,M,2,10,130.00224,72.74816,160.43008,118.12256,87.84032,66.92448,70.48896,137.3104,111.15456,141.94624,101.49856,104.44768,62.68192,156.46048,112.64512,142.88032
J,M,2,11,13.65472,261.10624,201.69952,283.14496,99.3008,179.08992,149.7872,259.57472,188.83584,193.69984,240.60224,168.2848,226.12032,267.4752,258.89728,279.40064
J,M,2,12,66.62624,242.90048,157.66272,316.3984,90.66272,261.32992,224.63968,255.35808,181.06112,222.56576,239.85952,190.42176,195.70272,222.2064,241.6864,253.40064
J,M,2,13,-110.07712,34.22624,-14.09632,18.05376,-89.19616,-17.27296,24.64224,35.35456,8.73664,71.02816,3.96096,-128.95168,42.32,-10.3056,21.07328,-102.72064
J,M,2,14,0.1632,73.2416,9.65088,20.7984,4.09856,-110.93472,59.96288,98.15744,136.7104,-109.57792,103.6784,-49.47264,57.49952,181.12352,-76.94688,243.71936
J,M,2,15,-336.03072,-307.0896,-329.23744,-364.94624,-372.42208,-657.2688,-417.89216,-606.43616,-506.73216,-769.91072,-999.28672,-1185.57472,-1035.35488,-1022.62304,-1487.56224,-1484.67328
J,M,2,16,91.5152,4.12448,214.59136,16.8592,141.72096,220.40608,47.88032,190.93888,106.47488,121.60512,107.66144,40.82912,216.82656,142.62624,92.38208,247.79456
J,M,2,17,33.52736,47.09248,-0.14624,91.64704,-10.92032,27.89312,34.54656,62.89728,40.80896,55.38016,60.576,58.74944,4.032,108.3952,31.17152,108.71936
J,M,2,18,-20.94496,-1.70656,186.71296,-20.7104,-39.7392,83.78496,71.5616,60.50784,81.57664,113.48448,78.73216,165.65152,86.7376,-17.6016,111.6064,134.01376
J,M,2,19,-83.88576,-162.7968,-188.0064,-69.07616,-216.57248,-173.72512,-141.57472,36.51296,-157.26208,-365.06528,-220.33376,-369.51968,-310.57408,-126.51008,-176.88064,-25.82304
J,M,2,20,-42.48736,-22.536,-20.33312,-57.36,31.4288,-61.17184,-25.08,11.3488,3.02016,3.7184,-43.09312,-44.76224,-68.60672,-78.9856,25.43168,93.79008
J,M,2,21,64.57248,157.45664,170.74656,216.56832,181.77472,182.2144,206.3616,171.00256,199.42688,264.57472,130.1056,199.60832,264.42432,268.91328,301.30112,240.72512
J,M,2,22,12.7408,131.19808,76.76672,125.80384,50.24288,130.63424,113.87904,124.984,99.24992,89.54176,144.09248,181.62336,51.14976,141.46304,183.6224,103.632
J,M,2,23,117.3792,1.79584,63.29568,22.4112,-25.72768,53.1792,18.2032,164.48512,135.8736,68.20768,10.24192,121.48544,95.73696,134.27072,241.87552,127.77504
J,M,2,24,121.10784,-4.96352,124.34464,97.13792,157.88128,18.05088,192.7136,158.90368,311.76768,174.80672,117.49792,132.4256,14.1488,290.87712,40.78336,185.35712
J,M,2,25,72.32032,238.67008,170.6576,298.38816,287.4736,243.1936,209.92768,213.70112,222.6816,209.35264,314.82112,304.49184,318.3312,308.92736,208.72672,380.0384
A,K,2,1,14.45408,-11.3888,6.44288,18.39328,25.15328,35.3984,21.18528,29.4432,33.30304,38.03424,44.34944,41.82496,39.53792,22.52928,37.65888,49.34144
A,K,2,2,-90.62528,-219.75296,-144.9408,-148.56512,-153.17696,-158.12192,-258.62944,-155.05472,-165.11584,-108.18592,-278.31008,-251.83456,-315.60544,-309.26944,-280.82784,-260.09728
A,K,2,3,74.56448,-25.37504,43.64512,10.784,73.58624,46.88192,37.7568,61.20896,128.4048,109.7488,98.28352,117.45376,94.2768,40.10144,113.28448,102.2256
A,K,2,4,200.5808,142.6544,154.61568,154.34656,107.00128,104.32672,96.78528,89.08576,99.98976,107.00672,81.98848,85.69984,74.10688,71.62304,68.9264,62.06016
A,K,2,5,184.88352,157.5904,140.46752,140.38176,130.05184,108.1088,101.33248,109.53632,94.31232,94.2432,90.68672,88.58336,67.984,68.68416,63.83328,52.34944
A,K,2,6,225.27008,93.53152,158.59136,117.26688,186.50368,129.30112,188.76224,119.67424,193.28832,201.42688,171.55168,206.56896,181.02048,168.42432,185.1728,208.85184
A,K,2,7,-76.40736,-85.81568,-129.73856,-92.10272,-63.08928,-118.29024,-111.74368,-41.07904,-50.69152,-49.14496,-96.64768,-133.05664,-116.97024,-190.29664,-79.36288,-47.79264
A,K,2,8,-87.33216,-82.03296,-114.64512,-114.69312,-96.56864,-159.85056,-167.49984,-164.832,-110.37696,-124.31776,-155.00448,-208.5408,-192.87424,-231.08096,-231.55008,-272.06496
A,K,2,9,0.20032,45.43456,14.5328,31.79584,23.48416,22.67808,26.1328,11.90944,31.23392,28.36608,2.18816,16.67456,3.2064,16.15232,15.7968,21.92864
A,K,2,10,57.39104,85.93952,72.30624,82.19552,73.23712,76.57312,72.88576,58.27712,97.16576,85.38944,94.4256,93.92384,64.96672,73.45056,91.32672,86.78528
A,K,2,11,260.23456,101.47904,186.34784,125.96992,152.7824,113.8608,118.42912,107.00896,167.50336,148.93344,140.53024,159.74848,160.85856,171.9168,153.04864,184.17024
A,K,2,12,238.62112,103.31584,149.58112,97.2752,144.79616,92.41472,119.0208,135.28608,158.28512,162.2192,156.53376,144.1936,132.32896,139.52064,144.5568,186.8576
A,K,2,13,41.39168,-64.5808,1.62752,-23.70976,13.34944,-22.38912,-38.81152,-13.8016,-9.53792,-11.33056,-29.17024,-29.32512,-70.39776,-68.01376,-65.89248,-66.1088
A,K,2,14,-47.5984,-42.32032,-60.1952,11.50368,-18.43264,-24.96672,-5.19392,37.9872,27.88416,59.98112,30.7264,16.7744,-21.936,-19.20736,53.75744,-21.2048
A,K,2,15,-369.07264,-454.25408,-473.46048,-505.464,-509.72672,-624.52768,-733.46432,-735.46592,-747.42656,-858.56736,-1053.38656,-1167.50272,-1382.77728,-1576.93888,-1696.84704,-1863.51104
A,K,2,16,64.9904,114.67296,29.39584,116.17664,85.31136,75.28224,73.05184,93.56864,89.18816,102.02368,88.78624,104.17984,85.40864,71.42176,108.48704,86.42304
A,K,2,17,6.70944,1.83648,13.93152,12.34272,20.78368,2.15648,10.38816,14.7616,16.86368,11.0416,27.03456,13.78112,21.39808,13.01024,25.608,29.3536
A,K,2,18,22.7056,-9.46176,-9.04032,31.73088,4.22816,3.99136,-10.5264,-1.59168,21.60384,17.01088,30.92736,41.65984,14.6768,14.23872,16.56992,35.4016
A,K,2,19,-138.07776,-135.15616,-170.40096,-133.29536,-134.94816,-209.89312,-243.656,-218.4704,-173.70912,-176.02464,-244.88896,-232.68448,-305.97824,-355.52192,-299.21216,-328.98144
A,K,2,20,-11.29856,-37.62528,-31.19584,-28.6064,-34.62112,-35.38272,-40.30272,-42.1328,-28.39648,-28.75712,-38.02112,-42.61888,-31.24448,-51.13664,-61.25376,-51.86144
A,K,2,21,143.3856,64.42272,93.62208,77.03264,127.17312,95.91584,95.44832,110.99776,116.3456,124.69248,119.6752,115.42368,99.11648,108.82816,120.88608,199.41312
A,K,2,22,100.72896,43.43168,88.54496,72.66336,98.12128,58.69408,75.168,66.58208,95.83968,99.60992,97.72448,90.96448,88.9888,87.0032,93.27712,69.8528
A,K,2,23,-11.55552,23.14752,-0.05536,12.39264,24.3504,15.0704,-6.02208,21.856,36.48736,43.0048,20.72992,26.16224,30.80832,35.50208,55.7968,47.04768
A,K,2,24,23.71392,24.47232,-11.86848,51.6624,14.4672,24.52704,-6.2336,21.02336,37.27264,55.16512,43.26048,40.8384,46.60192,15.76192,74.14688,49.48672
A,K,2,25,194.23648,95.03488,159.20448,160.58528,188.38176,146.94016,143.8704,144.2352,197.47968,172.06464,159.46432,186.37248,180.14816,188.42208,237.81504,216.49504
J,K,2,1,14.39936,54.02144,8.89024,61.20032,53.1232,40.9008,62.59168,70.26496,76.23776,68.3792,80.13216,83.56672,55.71456,81.93664,72.65312,64.44256
J,K,2,2,-224.65248,8.69056,-71.45664,-18.16224,-61.79776,-134.4048,84.55904,-8.72736,65.4016,-214.44,2.65024,-112.7072,-20.93408,2.75648,104.0752,5.89056
J,K,2,3,-13.7776,229.57696,71.12064,217.1472,66.99744,153.48864,192.23584,287.36768,198.53792,235.44576,305.30016,244.7424,255.27808,327.76384,259.29952,418.66272
J,K,2,4,266.88384,328.85568,301.32128,229.7568,244.8576,199.94528,193.7584,207.41024,172.90592,156.51776,187.1472,157.80064,127.02752,139.96096,126.69504,126.22112
J,K,2,5,390.1536,289.38656,293.45408,246.57632,231.97856,214.36736,192.85568,164.83168,175.79808,147.4112,173.89888,132.2144,132.59392,99.39104,111.5952,101.83296
J,K,2,6,97.09536,387.76352,221.79584,374.90048,243.9696,332.65856,249.34656,367.09568,344.78944,363.312,360.34688,303.62912,336.25024,390.0128,354.0624,395.95456
J,K,2,7,24.52832,71.24576,58.28192,48.17344,-33.86784,12.84352,74.78208,155.40608,163.13984,94.256,28.73856,90.29824,34.24032,257.41728,250.94944,271.5184
J,K,2,8,-42.57216,-50.18624,-32.19328,13.95424,-116.9904,-29.5424,-49.20736,30.30272,-69.12192,-17.58976,-99.88192,-35.82848,-104.52032,8.46752,-63.82656,-53.2032
J,K,2,9,123.6624,18.07072,91.58208,47.58592,44.1776,64.22144,36.7408,80.4256,51.67008,74.44768,44.40032,38.02976,41.5376,40.52992,34.23808,58.4528
J,K,2,10,203.44896,116.44704,176.49856,131.51296,147.94688,123.05216,101.99968,156.78528,139.95616,151.136,166.04352,121.51072,130.25632,148.44672,141.04416,167.6896
J,K,2,11,18.25792,429.24672,209.29984,341.95456,168.34976,280.69504,212.5728,357.77504,276.14016,310.13184,299.11104,248.98784,295.98496,317.09664,326.14496,332.1328
J,K,2,12,78.7088,371.1952,211.7168,349.56096,183.44416,292.72736,252.44,295.68704,260.056,347.99744,296.88,229.64192,271.72832,279.5568,311.0416,289.3024
J,K,2,13,-83.70496,89.86496,-13.95936,110.55712,4.728,51.31488,79.18208,52.78272,49.84736,63.64768,4.85696,18.23936,51.5696,20.19392,6.0288,29.42688
J,K,2,14,92.14688,36.512,151.42656,164.62048,128.58848,86.67904,219.0736,298.00448,311.59456,212.16192,248.53632,269.62144,192.37952,372.98112,287.91168,450.98336
J,K,2,15,-414.48896,-367.83872,-429.19136,-387.84384,-613.13152,-611.88384,-531.42304,-566.3056,-731.8768,-871.24032,-1055.63936,-1233.6384,-1347.93472,-1314.76384,-1545.23648,-1556.11008
J,K,2,16,182.19616,69.06272,273.19808,106.128,199.39424,173.23328,177.34016,166.47648,206.97376,168.10912,192.16928,181.84,230.73984,232.248,177.83648,222.42464
J,K,2,17,45.30688,29.00096,17.84896,70.26976,22.5744,55.21216,44.59808,56.81312,38.14848,52.81152,54.07904,91.23808,56.3024,68.29984,72.40224,90.9536
J,K,2,18,32.2432,42.94112,123.1616,50.81312,60.6592,56.0848,94.81312,136.53152,104.26912,108.37152,102.04288,151.05024,131.95296,160.2112,152.9456,207.58848
J,K,2,19,-53.85184,-91.72288,20.70464,33.7984,-97.4416,-83.49952,-16.24416,131.45792,-64.81696,-127.65088,-29.06144,-158.51584,-107.24768,-21.75104,-55.06048,82.7552
J,K,2,20,-39.88992,-11.51776,2.7872,5.75616,4.39648,-17.13088,-18.64128,6.6384,-10.60832,-24.73312,-23.70848,-18.67392,-17.3664,12.12512,24.3328,55.15776
J,K,2,21,75.43136,232.75264,191.81376,249.38944,157.2384,220.33088,226.49856,278.96928,254.2896,252.25248,237.95936,211.37952,281.49152,283.03136,291.83584,300.18432
J,K,2,22,29.96928,193.616,100.8288,185.40672,126.6944,182.98528,138.6896,196.71456,159.97216,169.93664,169.13792,194.70624,122.93664,178.23488,182.70272,157.96096
J,K,2,23,120.68128,31.01216,100.06976,68.41536,113.88832,46.39136,85.99232,105.80992,160.84992,91.03552,128.7904,81.62944,135.71488,212.41632,199.57952,181.61248
J,K,2,24,120.45184,49.79744,219.61504,85.83488,129.71968,119.12256,149.89504,183.02336,219.0608,148.09248,158.84,181.13408,151.12448,325.49536,207.17184,294.27904
J,K,2,25,97.72576,352.26048,251.52704,366.9568,305.496,392.03584,306.86944,381.48896,332.45216,349.96704,359.62848,329.41408,386.97376,450.1264,376.6224,493.50624
A,L,2,1,19.46272,-8.03008,8.44608,18.5936,21.13984,39.28992,25.29184,29.28544,30.51168,34.33792,46.74464,45.36544,40.06464,24.94304,40.86752,52.04608
A,L,2,2,-69.08832,-199.05952,-135.72448,-154.98048,-205.43872,-132.74816,-227.49856,-173.38624,-212.83296,-170.88512,-264.43552,-212.53888,-320.03328,-283.90976,-241.84512,-228.20128
A,L,2,3,91.83136,-17.17728,46.5808,6.89504,43.39392,56.36704,52.03776,52.49248,106.04352,82.3568,102.7056,130.00928,88.85472,44.8688,123.23744,107.63616
A,L,2,4,206.13696,147.2448,158.47808,153.5728,102.952,109,100.91456,89.41024,98.4448,105.07168,83.5136,87.8128,74.42464,72.54432,70.20704,62.87968
A,L,2,5,190.9088,162.752,144.58752,140.08256,126.08544,112.31104,105.60128,110.1104,92.99744,92.63616,92.5728,90.44832,68.61984,69.86592,65.30016,53.48832
A,L,2,6,239.90016,101.76832,165.15872,116.15232,170.92832,139.18432,200.5936,117.60864,184.34368,189.67648,177.70656,215.51712,181.58304,173.68,192.47584,213.92576
A,L,2,7,-63.29312,-78.4816,-134.7984,-110.56672,-124.47008,-110.4208,-98.9104,-75.94336,-111.98016,-126.1104,-105.48608,-126.43584,-148.608,-202.00736,-83.59904,-64.08
A,L,2,8,-77.52864,-76.16288,-117.41152,-124.85184,-138.2864,-151.69888,-155.92032,-186.68864,-151.4368,-178.51104,-159.8816,-200.6896,-214.2208,-235.31616,-229.75104,-280.66112
A,L,2,9,3.32672,49.89344,17.97696,33.76096,22.92416,27.81088,32.46272,14.04576,31.51168,27.76,6.69248,22.9152,6.96256,21.9296,22.62912,28.95072
A,L,2,10,63.9008,95.18656,79.44832,85.76448,72.9728,85.93504,82.16256,62.09536,98.28096,85.73504,100.92832,101.90016,69.4272,79.5792,98.49952,93.70688
A,L,2,11,263.90624,101.88704,182.05568,117.68064,127.6672,113.4544,120.37824,96.024,148.79936,127.88576,136.68096,158.30656,151.05952,166.6272,148.24576,177.47968
A,L,2,12,245.7664,105.40096,149.65504,91.80576,126.9072,95.69248,123.97504,129.68288,146.50912,148.7712,156.15552,146.43776,127.47968,138.26752,144.64512,185.04864
A,L,2,13,42.30432,-65.18048,-0.46304,-32.99968,-5.14592,-20.74528,-36.36,-26.80448,-31.20416,-37.13888,-34.62784,-29.94496,-83.57632,-75.14208,-71.82528,-75.28704
A,L,2,14,-28.86976,-28.83072,-55.31904,1.40096,-63.51072,-7.31968,18.69184,19.10272,-14.94112,4.6784,37.65824,38.65024,-33.77536,-12.18464,71.21856,-10.62208
A,L,2,15,-328.46144,-406.7408,-439.80416,-486.15808,-541.97984,-559.90528,-652.32288,-718.3488,-765.21856,-892.76256,-962.30272,-1018.7168,-1291.70592,-1417.43712,-1493.5184,-1646.41824
A,L,2,16,66.51008,115.09472,28.69088,108.256,70.70944,78.42816,75.76192,85.11584,76.65472,85.84384,85.95072,105.4144,77.77504,68.36064,106.23136,82.39968
A,L,2,17,11.75296,9.81536,19.728,15.75936,20.12192,11.15552,19.71392,18.6336,18.496,11.46656,35.35616,24.30048,28.53728,23.024,37.01952,41.02944
A,L,2,18,24.808,-2.8,-5.96928,24.45184,-11.0128,12.13632,-0.32704,-8.36864,6.2288,-2.84864,33.51296,50.88352,10.51584,19.11136,23.74144,41.17376
A,L,2,19,-116.84,-119.63808,-165.38656,-143.57056,-190.08608,-185.64672,-212.39456,-240.81792,-226.12096,-247.24128,-232.79168,-197.80256,-315.24768,-337.31776,-265.45408,-305.11968
A,L,2,20,-13.152,-41.7648,-35.99648,-39.22656,-52.22592,-40.60352,-44.23968,-56.8944,-49.03808,-53.65792,-49.9936,-52.18752,-50.03872,-68.1632,-79.0336,-74.46752
A,L,2,21,158.14272,74.0208,102.33856,79.55968,116.00096,109.19552,111.53952,113.57216,109.848,116.4416,129.4208,130.44544,104.19936,120.4224,135.08192,213.36832
A,L,2,22,103.52288,43.9184,86.72128,68.3104,84.86528,59.63968,77.26144,61.55904,86.0944,89.22784,96.55776,91.09312,84.71488,84.7888,92.21152,67.61664
A,L,2,23,-9.41536,26.10688,0.34272,4.31808,7.27104,20.75296,0.89376,12.57472,18.98176,18.91616,19.36928,30.35296,22.68736,33.93056,56.7584,45.20512
A,L,2,24,24.68704,21.79968,-19.424,30.53792,-25.79712,21.73984,-6.5136,-5.59104,-4.50976,5.07168,29.18144,33.67296,16.48,-4.65696,55.52416,22.97792
A,L,2,25,211.48512,103.42304,165.21152,159.0272,165.89696,158.10368,158.9088,139.2688,181.75712,153.08512,166.68,198.56224,180.50048,195.01856,248.28288,224.93824
J,L,2,1,16.26528,52.86176,8.71264,51.94752,64.61888,47.7904,59.34848,66.83456,73.12544,79.50688,89.49376,84.55744,62.30144,88.14112,77.40192,66.24256
J,L,2,2,-207.416,-3.90624,-87.03584,-114.1328,37.40256,-83.51456,27.19616,-60.44928,10.31904,-100.32288,110.89696,-127.88544,62.42368,86.4944,159.97344,16.2336
J,L,2,3,-13.18144,216.32,63.87776,152.41632,112.26368,181.4976,162.97984,259.86144,173.37184,284.50464,349.59584,237.17728,283.67616,355.50368,274.104,418.31808
J,L,2,4,271.56672,326.74272,298.13536,217.55904,257.80608,208.50016,190.71744,204.51456,171.89504,163.18016,193.248,158.55712,130.27072,142.6192,128.45536,127.01216
J,L,2,5,396.39936,287.7584,291.7152,234.11168,245.2528,222.28352,190.10144,163.09248,174.14592,155.01408,179.75936,133.44032,135.71456,102.16992,113.7456,103.0416
J,L,2,6,101.72704,383.168,215.87424,338.7472,278.61472,354.31616,235.0656,354.93408,334.47296,393.85312,386.44768,304.58624,353.23488,405.90624,363.64672,399.58848
J,L,2,7,26.93632,44.55968,32.92736,-57.1344,40.73184,45.34912,3.98368,89.536,91.37088,174.49344,95.57056,53.10816,73.55744,292.79936,256.45408,234.29824
J,L,2,8,-40.3456,-68.03968,-46.29728,-58.95456,-62.39232,-5.39296,-95.55616,-13.08512,-117.34112,42.79712,-49.66048,-61.1792,-70.5264,39.27136,-53.37664,-75.45536
J,L,2,9,129.19936,19.26912,92.64864,43.80928,54.8976,72.76864,35.9776,80.57888,51.78144,86.34592,55.03296,41.45952,50.64448,49.74304,42.56768,65.69248
J,L,2,10,216.23648,118.68064,178.5728,125.03296,167.19424,136.62496,101.58016,157.27392,140.34624,166.60192,181.05856,126.09664,141.74112,158.69824,149.57664,174.99584
J,L,2,11,18.17248,411.62016,200.15872,293.3936,189.60032,290.2992,188.99456,335.06496,255.9424,330.39808,313.90432,239.24768,301.69056,319.84064,323.68672,319.8224
J,L,2,12,78.69504,358.71936,203.08096,311.08736,205.48768,305.57664,235.95072,280.6256,247.1856,366.37216,311.49184,223.63936,279.21408,285.48704,312.25024,284.51296
J,L,2,13,-84.31104,84.37216,-28.64672,81.19616,26.58752,61.05568,54.7568,30.40256,25.2816,84.8368,22.04992,3.0848,59.63232,26.48928,2.59328,12.17824
J,L,2,14,100.78816,22.3248,132.98656,80.11296,204.6,130.26144,168.04096,251.0448,260.75392,302.29024,323.35616,251.6128,246.32672,425.05824,316.98784,445.92864
J,L,2,15,-364.47552,-358.56704,-418.29472,-467.9664,-460.11872,-509.65024,-567.80736,-592.00832,-755.16736,-637.26816,-817.80864,-1167.54272,-1099.6528,-1048.79392,-1295.00704,-1366.55168
J,L,2,16,181.76192,64.20192,259.76448,82.07584,219.23712,180.52576,160.01536,153.176,190.08672,183.09056,206.66432,172.6816,238.02528,237.352,177.87968,213.31616
J,L,2,17,56.0224,30.84896,19.76704,65.12768,40.52128,67.00512,44.41344,57.58368,39.08416,71.63648,71.93344,98.08,71.87456,84.15456,86.55776,102.55872
J,L,2,18,42.7024,41.20544,110.18304,25.66976,92.84736,74.17888,74.26176,119.84,87.32704,142.10464,132.75296,144.41504,153.55968,180.46752,166.14176,205.0992
J,L,2,19,-44.36032,-107.25312,1.36544,-65.97248,0.28864,-29.96544,-78.8352,76.16736,-127.36352,-9.07936,76.7728,-176.59744,-27.37792,62.42176,-6.4464,90.37568
J,L,2,20,-45.99424,-18.19456,-10.39136,-17.71264,11.9104,-16.37376,-40.14912,-14.144,-32.96576,-17.38208,-20.14272,-37.4416,-21.92576,5.5632,8.89152,26.20448
J,L,2,21,80.79296,232.968,191.11552,220.29216,191.60928,245.1296,217.23872,269.76864,247.6688,286.65696,270.88448,214.54688,306.30016,305.2592,309.79648,310.96512
J,L,2,22,29.64256,184.34784,95.3248,159.58336,139.88576,189.52704,127.02912,184.53536,149.88928,181.84,178.4304,189.568,126.15136,181.49184,182.552,153.84896
J,L,2,23,125.40544,27.42272,86.87648,41.68704,142.90784,60.49408,64.14944,87.64736,138.65184,119.65888,154.50464,71.84672,152.52416,226.7632,205.976,173.29312
J,L,2,24,115.09472,31.01408,191.49376,22.80544,164.15776,132.024,103.33728,137.57728,172.82144,181.05248,182.0368,150.544,160.01376,329.75744,194.4704,254.792
J,L,2,25,100.74144,344.20512,244.91008,315.50272,346.98464,420.77312,286.51488,361.97696,314.83616,392.49216,395.87424,327.7264,410.77504,474.3232,391.56544,496.63232
A,I,2,1,-74.41632,-97.64416,-51.80512,-39.95776,-31.28896,-17.6464,-26.72416,-36.57696,-42.33024,-32.87264,-19.19616,-26.79712,-42.15488,-47.84576,-43.82368,-8.96672
A,I,2,2,-475.85312,-643.32,-622.82464,-638.61376,-685.03744,-671.45184,-828.76096,-709.5248,-792.11008,-868.20416,-1167.9744,-1232.4656,-1227.37376,-1206.04192,-1243.83616,-1160.008
A,I,2,3,-260.44448,-390.64,-240.85152,-272.91168,-179.03072,-203.42272,-231.49376,-229.20224,-173.89504,-214.63808,-250.97216,-256.56224,-311.92224,-321.80288,-221.26304,-208.33856
A,I,2,4,49.19936,-13.77088,3.46688,24.64032,-8.64896,-2.91264,2.53568,-7.07168,21.90656,48.67264,26.10944,23.5888,29.2832,20.01248,23.15456,23.86912
A,I,2,5,41.04672,5.584,-2.12608,-1.8464,22.78752,16.86336,10.91296,44.96032,29.64256,35.4512,25.80896,26.08896,12.67744,25.57728,26.17312,23.34624
A,I,2,6,-65.52992,-199.22272,-84.56032,-95.02688,-27.11712,-86.7504,-30.00736,-125.27296,-10.47296,-4.69568,-39.82208,-49.42656,-57.76128,-28.45088,2.97152,65.21984
A,I,2,7,-571.56544,-594.3488,-604.39904,-604.96896,-561.96736,-648.41504,-623.9024,-642.18432,-724.89152,-754.73952,-936.1808,-1014.0288,-964.97152,-1078.83712,-956.50688,-841.42944
A,I,2,8,-365.34272,-382.81024,-409.91296,-447.22304,-439.66176,-477.90496,-507.2512,-547.42432,-522.13888,-608.63136,-747.11424,-755.52,-781.0624,-809.25376,-945.9536,-870.6064
A,I,2,9,-26.50976,20.09248,-18.30976,-9.17888,-18.36896,-14.57056,-18.77504,-39.06688,-36.95264,-40.9248,-64.2304,-42.57664,-55.26176,-47.04544,-34.66528,-8.04768
A,I,2,10,-35.32224,-35.50176,-57.74336,-29.64896,-33.18016,-42.36288,-56.98176,-51.5808,-5.46016,-17.78752,-12.76864,-24.90784,-44.88992,-37.4832,3.928,9.90624
A,I,2,11,-14.36672,-176.6432,-63.60128,-82.89472,-24.3968,-72.46944,-84.79904,-89.86496,-38.69664,-66.04736,-110.14688,-81.79648,-56.056,-13.45568,-25.22688,36.3616
A,I,2,12,-33.744,-161.32448,-68.35424,-115.11072,-24.21792,-89.12256,-45.84192,-15.11264,8.55424,-5.1392,-44.29312,-42.43264,-21.2576,-9.3712,0.384,61.80672
A,I,2,13,-9.20032,-116.34016,-104.27232,-119.22432,-131.79392,-189.25504,-238.71104,-219.42208,-205.88512,-210.2864,-231.04928,-255.55072,-314.67168,-278.21216,-267.24864,-224.76128
A,I,2,14,-515.8768,-521.49856,-468.5456,-470.37504,-514.5296,-519.74656,-582.52288,-608.55904,-660.57024,-685.21504,-871.86272,-874.18816,-959.7488,-852.00608,-782.47392,-855.96288
A,I,2,15,-695.66272,-800.2752,-875.83424,-924.45792,-993.35552,-1065.3056,-1351.61504,-1409.6624,-1556.16864,-1694.00448,-2147.13152,-2451.0352,-2704.03392,-2743.23008,-2878.46144,-3067.568
A,I,2,16,-17.19232,12.26624,-119.22944,-25.46304,-91.90912,-80.62656,-59.66304,-92.98656,-54.3152,-71.15136,-90.54976,-96.64768,-140.10528,-106.4928,-84.27168,-81.4224
A,I,2,17,-45.02592,-50.75104,-40.74784,-50.2384,-24.67968,-63.34496,-77.17792,-67.74464,-61.17888,-52.81248,-40.91904,-53.79584,-71.5264,-88.03744,-59.25952,-38.06336
A,I,2,18,-26.08704,-110.09312,-182.52128,-92.9408,-186.28832,-239.27904,-234.42624,-238.98016,-268.55776,-258.54336,-266.5488,-258.30336,-247.87424,-268.43328,-343.42624,-289.7104
A,I,2,19,-553.38784,-573.85056,-655.27712,-697.68928,-685.1296,-793.20192,-900.92288,-969.48096,-979.53184,-973.6432,-1261.80864,-1374.15136,-1447.07392,-1483.52768,-1429.52192,-1312.53536
A,I,2,20,-46.20288,-65.67616,-72.17472,-99.8864,-132.70688,-110.31808,-133.85888,-131.53568,-118.76448,-115.25376,-126.26592,-149.59168,-141.9968,-172.03488,-214.40384,-169.49888
A,I,2,21,-5.5088,-97.66528,-45.16512,-80.36,-11.35936,-12.27072,-30.7824,-26.14176,-73.56032,-61.77632,-52.11808,-106.04064,-80.33184,-48.67232,-26.23488,92.44928
A,I,2,22,-65.99584,-122.4736,-46.47296,-63.66528,-32.20096,-82.75392,-61.38976,-65.25664,-64.85408,-46.77728,-69.85696,-56.24352,-50.0112,-46.3584,-26.27232,-21.76384
A,I,2,23,-73.3296,-39.4208,-124.89344,-120.55072,-149.1792,-220.2656,-245.69792,-227.37376,-165.0176,-173.57376,-242.96064,-304.664,-243.84384,-239.70336,-223.64288,-180.08416
A,I,2,24,-147.72448,-148.01216,-227.29152,-205.92288,-207.6176,-192.32224,-284.92768,-250.37312,-241.82048,-170.82208,-217.936,-252.55168,-284.56864,-337.5088,-264.65696,-290.56768
A,I,2,25,-100.41792,-213.28384,-74.97248,-113.1696,-25.52064,-35.76192,-81.59424,-110.06016,-97.904,-122.61728,-161.32352,-94.26688,-60.02176,-23.19456,-1.14368,2.51136
J,I,2,1,32.16736,125.50368,39.69984,94.3456,93.89344,87.15968,83.99168,88.11072,116.94528,117.44032,127.14816,109.17024,112.44352,114.80992,141.14176,145.84288
J,I,2,2,33.92128,241.9776,232.9264,244.80896,339.91712,219.48448,542.70432,400.01952,395.85984,178.7296,509.87328,624.9296,748.42368,804.89664,1117.49024,1235.8128
J,I,2,3,-2.44832,483.74752,207.6608,433.64864,256.74208,347.56672,360.18432,476.4912,369.09152,437.65984,532.77824,451.7296,565.49184,691.28736,610.79008,883.80064
J,I,2,4,287.61312,361.77248,352.36064,266.93312,278.29312,246.08736,206.9376,243.17216,212.76352,181.9824,195.63648,194.20352,130.1392,153.53792,145.15264,142.984
J,I,2,5,415.32192,329.72096,310.66368,309.4048,287.7472,239.63872,247.87712,183.10336,195.31712,159.31488,181.78144,156.19328,153.39456,125.31648,134.728,123.3728
J,I,2,6,147.15488,553.19584,353.456,483.33728,336.90816,445.94496,306.8032,518.87072,442.51968,474.25184,426.85824,417.84736,497.488,532.03936,534.58176,548.47648
J,I,2,7,173.53984,393.22528,268.51552,352.80832,241.86688,411.00256,351.26688,451.712,531.28704,404.22368,491.65184,691.00608,572.92064,949.54592,1100.3712,1147.95776
J,I,2,8,46.70496,137.39648,93.05056,192.16192,142.60256,226.12,179.76448,288.03488,165.80512,168.67328,371.36384,339.96384,392.57568,366.91232,649.78176,802.07584
J,I,2,9,151.22656,33.93056,109.32544,66.25184,79.25984,86.32704,59.67616,88.05056,77.05216,107.57888,91.40352,80.9552,73.30144,97.05696,105.9216,121.94624
J,I,2,10,228.77088,133.40992,230.19328,169.58176,164.8224,136.32032,149.87584,202.30816,169.72384,189.73056,177.28416,163.93696,149.47488,210.7248,187.9728,215.3696
J,I,2,11,22.74752,549.4992,325.4064,482.36192,267.59616,373.0096,322.48256,446.15104,366.9616,372.46976,424.08512,389.26944,449.3408,468.14336,491.43904,518.67552
J,I,2,12,91.56192,518.9344,277.70208,496.78432,255.85088,413.82272,359.65088,383.39424,319.01312,377.10912,391.57184,357.7584,365.00704,383.4208,418.61344,429.93632
J,I,2,13,37.10528,103.52896,98.40992,136.0016,78.09056,120.92928,182.42912,185.85312,183.22208,216.2864,169.42528,163.66208,292.12224,266.03168,316.24288,305.84128
J,I,2,14,255.70432,377.608,324.14688,382.98656,423.79744,305.60576,454.77312,560.67936,588.85376,393.88192,701.43584,669.21376,817.69856,997.31968,918.17152,1319.59136
J,I,2,15,-68.2592,-65.66464,-20.84608,-45.58016,-8.74528,-222.19424,30.00768,-50.60928,2.6672,-256.40576,-229.97888,-134.82368,194.65952,351.5808,309.62016,684.15584
J,I,2,16,269.4096,82.29728,357.99904,130.3872,287.85824,304.32576,184.9456,294.55456,250.0352,242.51424,272.6336,236.61472,390.43392,345.78528,321.9216,445.72288
J,I,2,17,96.06592,73.00768,50.75104,133.25856,49.06848,74.20672,91.312,108.53152,105.14048,109.57248,122.63808,130.29984,94.032,160.2896,160.28192,196.29728
J,I,2,18,178.57568,45.99328,320.03904,85.88608,114.17568,199.86656,214.45376,196.04832,247.09056,240.35328,277.4064,384.23936,329.42784,282.064,420.69696,513.29152
J,I,2,19,141.18016,135.04512,189.29344,331.10336,225.70144,250.50016,293.76704,502.7936,432.24192,162.04704,442.95008,484.59072,632.25856,841.45408,1059.64896,1338.1376
J,I,2,20,44.98912,33.69152,42.20576,23.55584,105.84064,41.70656,68.81696,99.9904,94.2096,93.45952,85.76608,111.39968,121.4272,138.10368,245.6352,340.62752
J,I,2,21,126.86496,359.0032,270.4224,371.30208,319.5408,334.99136,341.96832,335.3232,356.31744,416.66272,323.9168,401.66976,470.96576,469.52832,520.28096,511.21344
J,I,2,22,42.47008,273.97248,136.37568,235.30976,154.43424,235.90752,194.78912,204.9728,212.46208,189.80384,248.7808,268.61024,182.86592,253.67456,288.53024,240.16832
J,I,2,23,261.32384,53.37088,191.17024,119.36416,133.15584,154.06656,178.69856,291.52544,285.03104,200.99712,206.91648,316.62208,337.33696,416.17696,506.00224,472.5184
J,I,2,24,313.88352,179.91168,348.0528,296.35872,376.70592,269.5072,390.95584,406.14528,535.99488,411.67168,434.68704,469.88736,445.07424,733.97408,613.73984,814.91712
J,I,2,25,139.5984,591.58016,332.6704,573.69792,516.67968,522.04,440.43136,482.46496,482.62272,485.58368,602.10336,590.07072,638.15328,652.56704,621.8944,802.66528
A,D,2,1,-51.1936,-16.45984,21.76768,-22.75968,-2.57312,-7.38528,-43.00672,14.83136,-24.96224,0.78272,-14.1632,-2.32064,-7.94176,9.9712,28.98624,-8.14592
A,D,2,2,38.576,-10.27872,52.57088,88.23072,35.96832,-35.17408,-75.01664,37.66528,192.656,100.65632,40.81024,160.56768,-143.02336,138.6864,54.39296,100.69536
A,D,2,3,-32.0976,-32.95776,-106.31936,-2.40544,44.10688,-26.81344,-0.60768,16.5808,77.81024,-1.50208,100.54112,-2.31808,-97.9984,-18.2848,-10.44544,-57.24832
A,D,2,4,26.46752,-41.9056,25.14944,42.22176,-32.11456,16.20448,0.84416,11.93984,37.97216,44.3456,0.46112,54.16544,20.72864,36.13568,24.89504,42.43168
A,D,2,5,-10.12192,28.88992,-60.20224,-18.56864,16.63648,-15.46144,38.13248,34.43968,12.72416,40.31488,35.2608,5.7728,19.87904,-10.44128,25.70784,-8.36448
A,D,2,6,-4.00096,-23.9968,12.0112,12.23872,77.12512,-32.3744,-0.80928,-0.39616,35.12928,53.9392,-1.86784,67.0784,2.48064,16.28096,30.57376,92.35904
A,D,2,7,18.31232,-84.9456,65.96512,39.32896,40.54624,-109.88896,26.94752,36.07712,108.84992,3.53152,139.31264,50.59872,97.52064,104.38688,77.99968,116.98592
A,D,2,8,39.73568,-3.1056,-10.92352,-11.8272,21.13376,-87.91808,7.93376,-37.38592,186.03872,-0.13504,-16.61312,70.69376,40.47584,101.02976,-80.86304,41.03712
A,D,2,9,1.38784,3.9392,8.22656,41.5584,3.51392,10.2384,17.18464,-22.73536,33.77664,23.42016,-32.48896,2.41216,-13.46176,25.04288,12.82368,-8.21312
A,D,2,10,-0.09792,31.72,11.25312,27.70368,34.59648,4.4224,-5.75008,-45.39456,12.90688,38.60224,63.94464,29.25024,1.80352,13.87488,47.65824,41.14208
A,D,2,11,78.59104,12.01056,80.2608,-18.76416,29.97152,-3.65952,8.96128,-32.64192,35.112,-5.44672,30.96,56.24288,-21.30048,29.8256,59.24032,77.672
A,D,2,12,5.72864,-15.97728,-52.96288,-7.2208,-15.52928,-52.72032,21.98016,25.944,91.67424,43.17856,-13.80576,14.35168,-39.3872,51.62688,32.4192,82.85152
A,D,2,13,66.49024,-19.56224,29.2256,26.28224,13.04096,-46.71456,0.928,7.04224,11.36096,-19.34176,20.63264,81.27392,-148.1552,-34.23584,16.8048,27.31232
A,D,2,14,-38.83168,-73.51808,59.67776,119.5344,-5.57344,-51.01792,53.24672,113.4848,31.22592,60.48256,40.42624,-0.94912,-87.73312,104.72544,115.92896,99.8944
A,D,2,15,0.71104,9.8832,57.47264,40.7248,60.85216,87.51904,38.77248,68.50496,111.08064,104.63744,156.4864,218.91232,-40.17824,214.94208,228.98176,301.80672
A,D,2,16,49.11264,28.85568,17.66304,57.39072,20.62048,17.72832,71.42976,90.59584,49.27488,19.6192,23.9152,22.3552,-42.8976,21.0576,36.19392,-1.49792
A,D,2,17,-7.96032,-8.34336,15.01696,12.57536,-6.76544,-28.05824,6.8448,-14.57152,18.63936,-31.91552,3.89856,7.5056,1.69152,-1.73664,66.53632,-42.352
A,D,2,18,34.31232,82.63072,-13.95136,69.78784,6.26528,16.56192,30.7552,32.29664,62.78368,-6.06176,113.99936,66.7024,18.83488,109.84864,9.62336,102.25728
A,D,2,19,52.28672,56.51392,104.51008,5.38272,-31.10368,-26.04768,54.312,77.9824,199.34784,7.53824,110.35616,228.16608,-45.17728,196.63616,300.7312,164.8288
A,D,2,20,11.1888,7.94688,-28.05024,35.32544,-18.42016,9.41088,-21.27136,-21.66048,30.29344,20.50464,37.23104,9.76352,-7.11296,-3.39904,-32.25536,40.9536
A,D,2,21,38.02112,-25.19616,-83.11808,26.07808,32.20128,-18.23808,21.0352,24.976,-1.68288,-13.8976,-18.46496,-6.38528,-90.16576,12.65984,39.6144,107.70112
A,D,2,22,-25.71648,14.8736,-19.29888,51.12704,10.67392,-48.2592,-10.23712,-0.45504,75.9616,-49.04448,-21.24032,-23.52096,43.3456,-28.74304,-18.3856,11.72864
A,D,2,23,-5.19168,33.81312,8.7136,-2.53184,-3.312,-41.08992,32.44256,-10.91904,17.1568,15.19552,8.65408,-17.69632,-4.19584,53.4688,-34.528,78.50816
A,D,2,24,13.984,51.72864,-31.8208,7.17952,-20.26432,23.03616,-32.60736,63.37856,36.24448,67.27392,85.96704,26.18912,40.27776,55.15648,12.13984,-12.54464
A,D,2,25,-40.4304,19.3392,-33.18976,120.70848,16.20896,-28.9856,-8.02176,9.04704,48.48672,-53.10752,-51.16576,-17.70944,22.03872,73.52288,57.85088,-29.86464
J,D,2,1,-3.20256,44.06208,5.51232,52.1872,64.03072,52.49024,9.1152,32.29888,72.66144,76.512,57.16032,-15.53248,-6.4032,-17.12896,67.6704,61.84
J,D,2,2,11.38016,133.7168,142.78688,227.81888,377.83456,216.71392,514.61664,314.5728,405.92992,208.07424,483.15968,669.23648,537.43968,726.6816,812.4064,765.4432
J,D,2,3,-10.1088,181.02624,43.29472,186.584,65.38528,75.37312,126.14624,240.91104,159.87008,187.33792,318.1696,182.6624,180.69184,391.52704,200.81504,438.2944
J,D,2,4,101.57536,98.93888,182.14272,109.88736,90.2032,102.93152,49.91744,147.05088,144.46752,110.6704,60.5696,128.58752,-10.40064,57.38944,57.3344,73.8544
J,D,2,5,176.09504,84.87776,65.11648,146.85376,120.67776,32.69632,151.20992,52.53152,79.72832,40.59488,74.09376,81.78496,67.90688,68.02656,59.18784,67.58848
J,D,2,6,23.18752,173.16352,163.22208,214.9072,105.50656,213.3968,32.47904,348.42272,249.09312,284.11456,132.97504,173.26016,249.88384,273.5984,281.29856,235.86464
J,D,2,7,155.34464,262.61344,206.06016,358.61504,293.0912,399.9216,336.13536,388.84608,516.51872,341.17408,420.99776,558.93408,310.28768,849.0032,832.15776,682.53792
J,D,2,8,54.42976,147.12928,89.19488,217.79648,189.52224,223.93376,184.20288,272.61568,256.52224,315.66368,385.67136,341.9472,302.256,353.32288,477.08,565.65472
J,D,2,9,135.14784,3.65216,67.55072,48.4928,51.37408,50.0976,22.88768,15.99936,28.15776,82.54624,48.27392,28.03808,-10.19264,58.45472,80.25632,67.54976
J,D,2,10,98.664,28.2608,122.86464,90.45024,70.57024,62.0864,99.07296,135.6832,60.47968,92.11552,60.3952,81.816,5.41408,137.21664,82.18048,129.88992
J,D,2,11,19.0848,201.02944,246.17632,304.44352,96.17664,157.37376,176.7312,253.6976,188.81376,126.57216,227.04448,228.75712,220.63808,225.90592,238.528,274.91872
J,D,2,12,65.98976,158.76992,98.31872,301.68224,17.76928,166.0208,173.52832,164.39968,135.69536,188.6592,206.52096,193.07872,72.03648,145.44448,163.23808,218.208
J,D,2,13,8.01952,85.18176,78.98048,126.52416,60.8864,62.99456,147.51584,170.06272,181.75136,209.63488,138.42368,194.91456,212.26272,158.70432,188.40192,122.84864
J,D,2,14,196.912,232.0688,179.76512,312.1072,357.7712,152.02528,319.56288,469.3184,515.44384,359.99904,615.45216,478.0784,461.04736,681.55104,398.8144,816.01408
J,D,2,15,167.8032,109.96992,219.85984,232.43456,322.67008,241.84832,469.40192,540.1632,631.90752,671.98624,626.67264,700.52512,855.736,1207.81184,984.90432,1203.90112
J,D,2,16,159.88608,-4.37056,263.54912,32.5552,167.47008,214.68704,35.9424,255.0592,206.7792,204.19488,200.71712,143.3744,260.99168,206.17472,171.51392,297.06784
J,D,2,17,46.80384,45.05632,9.19328,125.64672,-1.1536,7.1504,53.13024,70.14976,98.3776,82.33376,62.73984,39.05152,-38.23904,84.09152,108.43872,116.81376
J,D,2,18,150.07552,44.52736,323.08704,66.03328,64.10688,161.99968,179.40384,159.90624,255.52288,227.96448,298.36512,379.88448,213.03744,191.14336,262.56608,341.81632
J,D,2,19,179.28992,168.432,296.75904,450.08864,315.23072,280.7584,349.19264,591.57888,621.41792,355.97504,517.00416,555.81216,454.87264,794.32768,959.50752,1067.06976
J,D,2,20,32.28928,27.88256,-19.27616,-4.27072,83.78848,28.88928,52.88224,72.98784,89.8336,102.31392,102.68832,119.28672,73.22816,76.16544,141.99008,234.02336
J,D,2,21,49.04064,118.96064,70.6976,160.35904,172.47776,69.85344,129.904,56.52352,142.50144,222.91616,0.86176,179.968,118.85536,133.5024,210.17536,148.33216
J,D,2,22,8.80608,70.62656,14.45824,97.50848,17.1488,69.66688,56.1568,23.88352,147.47392,70.16448,132.76224,129.4256,44.38336,137.44224,146.4576,82.07456
J,D,2,23,176.00384,17.19008,132.01248,51.38304,-10.04032,34.38048,98.8032,249.2304,229.04384,127.0448,85.02592,216.17472,150.32,276.24064,285.21344,209.41568
J,D,2,24,168.00992,28.07904,167.34464,157.8656,185.47008,25.92992,187.31072,221.46336,403.18272,243.69472,223.98944,170.64704,-0.26848,421.13024,121.92384,291.9408
J,D,2,25,68.07744,138.66144,45.44032,322.29056,307.9584,120.81216,109.63232,98.91616,216.82144,164.83104,312.84032,255.26208,214.19872,248.95552,187.50432,340.17344
A,M,3,1,-77.8464,-71.59808,-47.76672,-68.26112,-72.21824,-69.25728,-124.19936,-148.30208,-89.82304,-81.58016,-101.16256,-154.0096,-97.71744,-84.41984,-47.69056,
A,M,3,2,-10.85632,-3.97984,-38.2544,-2.83264,-5.91776,-10.31584,3.7536,-17.19584,-46.48224,-46.3936,15.12064,6.68544,24.13216,12.51104,-22.04928,
A,M,3,3,2.6624,-14.35936,-36.42176,8.2144,-1.99616,-3.0592,-9.3664,-9.79584,5.6368,-11.71072,-52.18912,-31.21952,3.7792,14.17344,23.13728,
A,M,3,4,-30.976,-40.97152,-7.83488,-34.26912,-40.37376,-12.0512,11.28928,-4.696,-15.89344,-40.3568,-30.22304,8.45088,-33.8304,-40.72384,-15.67744,
A,M,3,5,6.464,-40.72832,8.73792,15.51904,8.86016,21.73952,41.88416,45.80032,73.73632,60.824,43.3344,59.90688,71.70912,49.81824,63.70144,
A,M,3,6,-197.704,-179.50336,-217.52544,-97.66176,-121.77984,-129.65728,-239.06144,-286.8544,-150.02912,-209.22496,-200.89728,-113.9376,-148.58272,-219.5424,-171.6016,
A,M,3,7,-87.74176,-53.10976,-86.9312,-61.056,-49.27968,-28.50176,-55.83552,-94.8336,-30.75456,-57.07456,-100.70112,-150.62784,-98.3248,-61.55712,-51.9344,
A,M,3,8,-121.84384,-51.38592,-45.41472,-72.24864,-86.06208,-67.86944,-88.58144,-145.22496,-141.62784,-154.8064,-31.56256,-85.41184,-134.0912,-76.83872,-76.78176,
A,M,3,9,-75.29824,-99.00544,-127.44928,-104.02336,-71.81504,-93.20384,-76.24704,-88.10944,-69.09856,-60.85952,-61.78272,-57.5968,-84.48352,-93.62912,-35.37184,
A,M,3,10,9.6528,-72.03328,-86.82144,-27.76576,4.40192,-11.57888,-35.34944,-52.52768,-37.23296,-49.84992,-72.26784,-45.40544,-1.6768,-29.5632,-22.61504,
A,M,3,11,-105.128,-64.98048,-39.85984,-97.04128,-77.93728,-37.16992,-83.06272,-119.83456,-80.98592,-0.63424,-32.58272,-48.06528,-61.78464,-34.53568,-17.27872,
A,M,3,12,-84.32512,-127.384,-53.52832,0.47424,-56.51104,44.29312,-55.49056,-72.42336,-82.52736,-72.84672,-111.33952,-126.33216,-54.00896,-57.48736,-125.21248,
A,M,3,13,-53.21344,-57.53984,-86.6416,-30.74752,-51.3456,-50.04992,-64.9488,-92.34016,-56.1152,-121.70752,-114.13504,-119.24512,-63.01312,-67.68256,-103.70656,
A,M,3,14,-21.3632,-11.6704,-50.54208,-33.87392,-52.15776,-94.0624,-90.43136,-152.1792,-103.46176,-83.27264,-48.70368,-109.728,-113.76992,-133.31872,-50.0096,
A,M,3,15,-117.4064,-61.91712,-93.73856,-86.53312,-91.22048,-144.4656,-88.71872,-129.09824,-103.3488,-95.38272,-133.67616,-172.3536,-153.5808,-132.22688,-108.21376,
A,M,3,16,-8.63104,9.80448,-10.14848,1.73792,-21.50976,1.34272,11.5456,-13.03712,-6.59936,10.0896,-1.09184,-0.27392,-20.14912,5.38976,15.07552,
A,M,3,17,-4.16576,-72.37632,-62.62016,-16.17504,-11.03232,-32.50464,-46.2,-30.12512,17.47456,-45.89984,-44.69568,2.15232,18.21376,-4.49728,-39.23392,
A,M,3,18,-375.86656,-312.39872,-381.9904,-391.5168,-509.97056,-480.31136,-542.61056,-556.17696,-567.88256,-551.28224,-544.40576,-613.39776,-672.0752,-682.40736,-670.4368,
A,M,3,19,-161.06624,-194.07552,-221.96992,-203.75968,-242.49088,-186.01632,-230.464,-289.57152,-295.04384,-325.42432,-208.48032,-189.81056,-208.52384,-286.83648,-309.07424,
A,M,3,20,-94.60992,-42.176,-6.36768,53.9536,-7.39552,-4.56704,-60.07392,-65.65952,-35.52832,-22.31968,11.57344,12.02976,30.62432,43.24256,41.40672,
A,M,3,21,-47.73344,-17.48608,-45.22912,-3.98304,-54.4256,22.99072,-28.60576,-63.62272,-49.79136,-25.14048,30.92288,-4.608,43.71168,22.77888,19.56032,
A,M,3,22,-34.85888,-51.49568,-49.85216,-71.54016,-25.78208,-47.74208,-58.02464,-95.23136,-89.84736,-40.48512,-41.49184,-82.99872,-19.7456,22.83232,-29.57408,
A,M,3,23,-254.73888,-252.02272,-264.42816,-221.18944,-287.21728,-257.63552,-324.68096,-381.71904,-408.02528,-335.14304,-366.08576,-392.52288,-517.72096,-507.20096,-393.50112,
A,M,3,24,-239.56,-204.08128,-248.75744,-257.80608,-286.23552,-206.70752,-266.11584,-356.10464,-372.71232,-363.048,-394.256,-408.70944,-335.6688,-272.37632,-352.52864,
A,M,3,25,14.26176,10.62688,35.83104,54.50656,50.07168,34.77728,61.41344,47.01696,48.4208,41.32832,22.85152,12.992,51.02624,17.84864,32.14976,
J,M,3,1,-13.2912,53.37344,-3.69664,76.98592,19.93984,-26.18016,-51.624,16.96544,56.95648,-12.20736,-9.92928,47.43168,17.32096,65.8016,109.5024,
J,M,3,2,17.7072,-37.34912,38.14624,-2.14272,-29.24896,4.1248,-31.06752,-50.35232,-17.83552,60.58816,36.83744,43.57568,-4.99072,-14.7152,-24.12,
J,M,3,3,-30.14656,-33.23744,67.43936,19.50304,24.3696,-16.96928,-18.56576,49.56736,7.63008,-70.63712,15.10112,45.11104,90.52416,74.27392,80.14016,
J,M,3,4,-38.4048,45.38304,-33.86304,-12.9552,21.32224,44.04704,-2.69408,3.55744,-48.0384,15.80256,73.37216,-62.28128,-9.44224,33.2944,-17.824,
J,M,3,5,-6.88608,74.00448,55.62976,114.02784,88.77856,151.08256,76.71616,146.71808,99.02144,116.74272,119.42048,162.68512,111.65024,163.01952,234.41984,
J,M,3,6,-94.81568,-118.768,46.54496,-49.18528,-77.6896,-219.89536,-182.86144,-9.41856,-115.5376,-131.0672,67.4672,-95.75072,-162.296,-41.25184,70.43872,
J,M,3,7,-19.57152,-108.584,-46.40064,-61.05632,3.74848,-87.82304,-113.6896,15.09824,-65.7408,-145.9888,-173.30784,-33.87264,-1.19872,-11.13728,-89.54528,
J,M,3,8,43.34784,-13.18208,-39.7488,-99.23808,-6.51488,-56.03808,-159.4,-166.14976,6.99232,81.94176,-47.2816,-160.91008,75.00512,72.98976,73.93376,
J,M,3,9,-24.42688,-14.28384,-1.76032,59.18656,-14.45088,74.66976,2.2416,17.97248,96.71648,-16.96128,37.65152,-30.6432,10.53088,111.8032,134.21856,
J,M,3,10,-48.67904,-45.97664,108.11744,86.22944,24.19552,28.21152,6.33792,31.99296,-7.72192,-19.54336,42.72768,80.776,78.64256,46.27872,139.01504,
J,M,3,11,40.128,45.24352,-72.45888,95.0816,45.66112,42.88384,-24.1424,55.69312,144.7984,37.07552,67.80032,25.0688,108.66912,111.80896,158.89824,
J,M,3,12,-42.34912,71.80672,139.57472,-9.3936,181.82592,-103.73984,14.2448,0.51808,-4.69024,-42.59296,-11.504,143.61984,43.9968,13.00096,89.0816,
J,M,3,13,-1.91072,-68.44768,95.20128,-20.69088,2.93184,-37.17056,-5.01952,47.21472,-103.44,-56.22144,-22.448,24.71904,-2.60416,-81.3728,126.5616,
J,M,3,14,-8.31552,-50.83904,16.02368,-7.89248,-96.24576,-54.19232,-168.02016,-64.46176,-11.016,19.896,-80.64512,-101.86688,-89.34368,91.76672,149.33312,
J,M,3,15,30.16768,-8.68928,8.05376,-59.56224,-149.15168,5.26464,-101.6128,-73.7488,-57.976,-71.7552,-168.90368,-31.85568,12.02784,54.74368,231.1104,
J,M,3,16,40.3104,-3.0608,45.40576,-10.3712,33.00768,23.6688,-22.0336,37.31808,13.74272,13.43872,16.62688,-30.63968,42.2672,37.97344,-41.18464,
J,M,3,17,-19.89664,89.64864,127.99904,71.88832,28.95232,77.48256,99.15072,127.8976,-6.88768,21.41888,125.98528,90.51968,36.94016,35.392,33.6752,
J,M,3,18,-228.5472,-386.38912,-342.57888,-515.27552,-390.19264,-514.10368,-509.19072,-526.8176,-466.49504,-480.25728,-544.43136,-682.71008,-506.30592,-502.78976,-257.57888,
J,M,3,19,-175.54848,-178.6448,-158.82432,-210.44768,-96.10784,-225.24416,-307.1888,-256.69248,-303.91712,-50.6592,-39.41504,-224.29248,-275.05312,-296.88192,-68.2864,
J,M,3,20,53.27104,103.17856,223.78656,62.7536,139.61312,75.68864,86.81056,95.96544,136.46368,151.86912,140.64832,128.51968,232.91968,124.73088,149.83744,
J,M,3,21,37.73984,19.0448,122.44128,-4.16224,158.66592,1.29248,-3.22656,22.67232,56.8496,97.61408,40.51712,190.97056,57.23584,121.74208,47.30944,
J,M,3,22,-33.88864,3.9504,-68.92384,66.74304,-72.064,23.59264,-81.92,-15.85312,69.02976,-9.50048,-29.66848,79.27264,55.19264,18.55328,211.91072,
J,M,3,23,-237.67136,-247.89056,-159.85088,-269.54336,-202.52704,-395.1152,-361.25504,-333.07168,-286.44832,-352.9792,-327.70272,-523.07808,-363.3632,-249.6096,4.65952,
J,M,3,24,-95.6208,-107.25472,-217.21056,-221.87136,-42.12512,-231.91424,-323.7984,-342.72288,-263.7136,-290.36192,-336.71616,-181.73024,-100.93056,-229.3344,0.99168,
J,M,3,25,141.83008,217.28544,193.3328,166.2944,181.56544,228.14272,121.12992,209.54496,201.41376,107.8128,155.28544,178.83328,135.61056,204.28928,188.80928,
A,K,3,1,35.51456,2.7248,63.41344,34.1104,28.65792,27.7792,-7.73856,-7.42272,12.86656,8.46752,10.33984,-30.40832,12.17056,19.39776,39.42336,
A,K,3,2,-9.44288,3.59712,-14.6272,6.752,-3.82688,-2.77024,7.12608,-7.59776,-14.91968,-6.70272,20.84288,-3.68384,25.91072,25.52032,4.4672,
A,K,3,3,6.40128,-2.59776,-5.86464,8.77472,-4.12416,-2.19904,-0.18048,7.20576,-4.12736,11.69664,-3.67008,2.60864,21.52736,17.97216,38.63872,
A,K,3,4,-1.34848,-18.43904,-3.31648,-5.3184,-10.51264,-1.87168,2.21792,-3.88096,-2.30496,-0.22592,-11.39072,-5.81568,-8.28736,-22.64992,-1.58688,
A,K,3,5,64.32032,14.35936,78.1008,54.12512,68.89152,68.7792,65.59104,65.37728,93.4528,102.368,94.22176,112.17728,107.4928,116.74976,121.87232,
A,K,3,6,-108.0464,-99.10272,-140.1616,-77.94528,-93.57056,-71.66464,-130.2928,-197.5904,-116.4384,-133.2032,-84.47232,-97.42016,-110.39136,-113.02016,-48.61952,
A,K,3,7,-100.49248,-71.54496,-96.85696,-59.07712,-61.4848,-62.6512,-85.45824,-114.99968,-87.22656,-97.04288,-88.2976,-118.99616,-110.9168,-110.60224,-85.73184,
A,K,3,8,-112.28544,-48.04928,-76.18016,-70.02944,-67.89312,-66.56128,-90.99872,-103.4544,-67.47072,-139.41952,-60.37184,-97.0048,-66.75264,-82.3152,-76.59776,
A,K,3,9,73.62944,25.0512,40.29952,51.09632,52.904,61.19136,41.13056,46.42496,73.26624,27.03648,63.432,58.91872,74.27808,64.53792,65.05824,
A,K,3,10,32.07808,0.64416,13.94624,20.64832,32.85984,28.02784,19.05184,3.6784,11.65728,29.05664,7.41216,30.2832,42.82976,24.63616,48.77408,
A,K,3,11,18.53248,16.2384,54.7872,28.75712,30.54816,73.1856,27.11552,22.60352,40.33248,83.5456,61.6832,67.38144,59.19264,56.00768,62.32672,
A,K,3,12,-4.79776,-32.44096,-1.71648,40.54816,-2.82688,47.71072,2.04576,-17.58496,1.78016,34.78272,6.68448,7.83552,14.464,14.7152,-15.30336,
A,K,3,13,-5.44832,15.04672,-11.7744,7.04864,11.20832,22.43008,21.63392,-32.53792,-0.49088,-20.87808,-9.5312,-31.72928,-4.20768,-5.83328,-25.2448,
A,K,3,14,-18.0192,-16.3488,-28.72128,-11.85216,-49.0464,-56.62528,-52.096,-95.53856,-45.21856,-63.09248,-55.93632,-79.25248,-45.82944,-55.45536,-23.81056,
A,K,3,15,-63.43648,-24.2048,-65.34688,-46.8992,-53.0528,-78.22176,-53.18784,-116.39616,-54.21472,-50.80512,-64.4752,-45.86528,-69.95904,-56.28544,-60.34528,
A,K,3,16,6.24768,21.25696,9.17184,17.39904,1.20096,11.71392,11.81856,4.96544,0.3696,23.84768,1.1136,13.87808,5.9968,7.58112,16.18528,
A,K,3,17,75.80512,67.36064,49.51008,81.29568,95.8656,82.8624,57.22112,54.93056,78.76064,51.9456,69.09152,59.67264,75.61024,72.91136,42.60544,
A,K,3,18,-258.21536,-219.77536,-279.58176,-231.83008,-348.33664,-297.80096,-368.75264,-420.01536,-396.96992,-383.38304,-403.25312,-412.50592,-425.912,-444.55488,-466.29632,
A,K,3,19,-124.85024,-160.89088,-171.0592,-132.91424,-170.41472,-123.9168,-176.79072,-222.85184,-205.03296,-188.0448,-192.7728,-221.34816,-173.90656,-220.8608,-181.26784,
A,K,3,20,37.99808,60.44416,104.096,98.25824,99.20576,92.77664,63.19744,63.32576,66.86144,75.4176,79.43904,112.57984,127.95712,109.5328,166.37152,
A,K,3,21,19.30944,66.9072,41.27136,72.99136,39.76224,84.2496,32.8432,22.71264,43.01504,40.68512,99.63328,72.40128,92.288,79.77344,104.92832,
A,K,3,22,-6.05216,-7.79104,3.4128,1.61184,15.89824,21.70848,3.41376,-22.06976,-29.45376,6.03648,19.336,-12.11712,10.03808,89.4032,60.71648,
A,K,3,23,-269.19264,-269.59712,-275.87104,-255.06176,-320.34048,-286.8784,-325.2624,-423.40544,-419.46464,-376.15456,-420.40448,-431.19936,-459.68288,-470.17984,-439.0896,
A,K,3,24,-130.832,-113.74112,-183.51648,-128.92832,-146.06656,-155.69856,-164.02368,-260.39648,-202.54208,-227.50912,-243.20416,-213.22656,-211.02336,-173.76064,-202.68096,
A,K,3,25,140.74176,131.73952,143.64032,148.2432,167.90624,145.44544,165.83648,148.0416,136.98816,135.096,122.7856,107.00384,135.13216,101.2672,123.50144,
J,K,3,1,-0.73472,153.03712,61.78432,127.80064,72.61568,54.10944,62.84928,22.58656,70.7104,52.3952,69.20096,79.76992,62.05856,72.08992,191.58496,
J,K,3,2,18.81664,-3.97344,27.81056,-18.51872,-22.47392,-2.4992,-23.77984,-5.0752,23.53056,22.02176,-3.61472,43.47744,15.97472,12.44512,68.12384,
J,K,3,3,-30.60352,8.46848,26.49504,-1.552,19.74784,-14.49792,3.57536,2.96352,47.7648,-1.76416,18.3776,29.77792,55.64832,83.21536,56.31584,
J,K,3,4,-32.51552,6.75008,2.99776,-0.11616,-4.46752,-5.05824,-6.78336,15.53408,6.9456,8.92736,5.51776,-8.8688,-5.50336,28.6256,11.07008,
J,K,3,5,8.7232,124.63456,29.62816,154.16512,95.39712,107.48192,63.184,132.51936,145.71552,154.26528,165.04192,151.43776,191.73344,187.16576,267.24416,
J,K,3,6,-101.97152,-128.056,-75.06464,-98.76288,-68.99424,-138.37088,-194.11712,-119.53664,-108.32928,-51.62304,-109.67616,-140.05344,-71.25664,6.54272,127.21024,
J,K,3,7,-61.11744,-131.7616,-50.26816,-107.39552,-74.3744,-143.67136,-144.96992,-100.70176,-115.59104,-109.1216,-147.08544,-127.4288,-130.55584,-87.86816,-77.85504,
J,K,3,8,19.34656,-113.6656,-36.62336,-89.5616,-50.89472,-99.01248,-123.17696,-94.63808,-96.35456,-45.592,-125.86944,-66.2768,-59,0.4848,65.424,
J,K,3,9,41.92768,130.45344,112.048,85.82688,116.78208,103.34272,75.36064,124.5984,64.55232,93.176,97.99808,114.3696,133.43904,97.64768,179.00064,
J,K,3,10,22.04384,60.14848,72.376,53.89664,40.0944,65.40288,41.34464,38.9968,73.89728,29.38048,82.16544,60.15648,95.61344,107.10496,110.60224,
J,K,3,11,64.64896,91.7488,64.39104,136.89024,118.14368,98.03776,92.08064,107.41664,127.5744,83.66208,142.64352,105.01888,112.4448,127.15008,159.19424,
J,K,3,12,-0.66016,22.728,91.80608,14.92544,72.86016,-34.93344,26.02208,69.29024,94.47392,29.488,93.81696,85.78656,46.28992,95.73056,131.81504,
J,K,3,13,53.05696,-17.90304,58.28224,31.25856,47.776,30.75232,-8.51008,50.79904,0.11488,11.90528,-1.7808,9.08352,1.1824,-25.90976,57.52672,
J,K,3,14,-42.91616,-23.86848,30.23488,-45.10048,-42.85696,-36.45024,-125.15712,-36.46944,-65.5824,-64.96928,-56.99616,-45.4224,-40.14496,12.11328,70.0048,
J,K,3,15,24.56928,-40.2064,26.8176,-72.62528,-94.86912,-31.96,-166.16224,-37.89344,-56.76512,-37.59904,-30.09344,-55.57152,5.98464,-0.52224,93.80928,
J,K,3,16,43.86688,14.86848,53.19872,5.75264,31.47552,-4.87008,13.59584,23.42464,32.06816,-0.12224,35.85824,4.4928,22.04704,24.25856,26.0272,
J,K,3,17,134.92192,141.62144,172.07584,149.9616,121.0512,132.71616,126.20448,129.92864,87.15776,133.15072,102.00992,111.11776,116.9568,97.95136,149.85344,
J,K,3,18,-218.14144,-366.19008,-198.81216,-444.09696,-286.4,-458.37504,-546.16352,-460.91136,-433.32256,-508.3376,-434.184,-544.30176,-430.14048,-503.464,-314.45152,
J,K,3,19,-200.64672,-168.93696,-120.87616,-202.50624,-110.21984,-259.89696,-308.78816,-239.39584,-211.0592,-242.48128,-233.76448,-213.55072,-270.37568,-197.05696,-79.9712,
J,K,3,20,73.1712,173.0496,137.69248,176.99008,182.36,168.2224,168.66944,102.99424,167.14816,120.68032,206.1776,185.54112,206.83776,256.4224,252.87072,
J,K,3,21,93.53536,70.34624,146.95488,67.93664,144.98144,16.18784,55.8784,82.12832,51.43712,117.39648,88.60736,170.83552,84.70496,200.3904,133.38336,
J,K,3,22,-3.78176,33.71872,11.04032,43.21696,-3.18176,44.5504,-35.39968,-5.73952,63.11776,21.41184,21.61216,26.76704,118.39616,100.79392,232.75904,
J,K,3,23,-318.36608,-308.7376,-279.39616,-361.8944,-303.70816,-435.5888,-534.1936,-402.04896,-458.91968,-519.80352,-474.24416,-489.40736,-474.76448,-527.39232,-346.07968,
J,K,3,24,-89.00736,-156.68896,-121.00832,-139.8192,-190.29792,-170.80384,-348.65728,-200.94272,-268.3792,-256.92864,-224.80896,-258.91744,-173.92032,-176.8528,29.06464,
J,K,3,25,224.06496,267.36256,239.58752,271.27392,258.85216,286.37408,182.76416,251.82816,263.62464,187.86912,215.11072,225.93088,190.51776,279.3776,228.72288,
A,L,3,1,47.57856,21.85088,79.1104,31.54144,31.5152,21.6736,2.58816,19.62592,26.70304,23.19488,25.23552,-9.89504,16.77024,24.61856,51.736,
A,L,3,2,-11.01504,-3.26432,-15.65408,-10.15616,-11.03168,-17.61408,-0.23744,-12.09152,-21.63776,-14.81024,12.74368,-10.7632,13.60128,11.7696,-7.7824,
A,L,3,3,10.16288,4.61216,2.656,4.18176,0.05952,-4.60608,5.4496,18.22944,3.552,19.09888,4.41632,12.90432,25.65056,23.19712,46.99008,
A,L,3,4,8.02688,-7.50816,8.12576,-1.59104,-2.26016,2.39136,10.7808,8.07648,7.50432,9.46944,-0.17504,6.24448,0.84288,-12.23776,11.22848,
A,L,3,5,90.90272,45.11648,109.00544,64.31584,88.49952,79.09984,90.56384,100.15424,121.99776,129.14816,123.64288,144.79616,131.41472,141.4624,153.88992,
A,L,3,6,-78.9552,-58.32576,-96.48128,-86.88352,-76.37664,-79.6624,-99.73248,-133.71936,-73.91488,-94.01824,-39.6768,-42.44448,-86.35008,-87.87584,-2.73888,
A,L,3,7,-83.84352,-50.72416,-72.58656,-58.448,-46.01664,-59.44864,-63.33984,-77.12416,-56.30528,-67.10528,-54.10432,-77.66176,-84.3984,-82.37728,-43.28832,
A,L,3,8,-92.49792,-22.66304,-49.14592,-71.09376,-55.38912,-68.46368,-70.26592,-59.18592,-38.56288,-109.92096,-28.91872,-54.32256,-46.89664,-60.2624,-40.36896,
A,L,3,9,86.1152,43.30688,58.43008,44.90432,57.86368,54.29536,50.6032,69.5584,86.39648,39.176,76.90656,75.56512,80.1616,69.44896,75.81632,
A,L,3,10,47.49408,44.33664,48.47808,33.11168,60.97248,44.12224,50.65888,44.52512,47.37888,63.23392,43.45472,70.27712,74.38656,58.5344,88.84448,
A,L,3,11,46.70112,45.14368,86.89472,36.03392,49.0624,79.32768,51.104,60.88416,67.49536,109.48384,88.87264,98.84864,77.00512,76.41312,88.328,
A,L,3,12,29.36544,20.58752,51.05664,55.34624,34.84352,67.6944,49.03904,48.81728,58.51488,91.07904,68.26976,77.59552,66.83072,70.41632,57.1888,
A,L,3,13,12.232,45.50848,16.8992,14.18976,31.24544,33.10848,46.83168,3.80768,29.72608,9.62848,22.79392,4.55872,22.64672,23.38304,11.4176,
A,L,3,14,-9.03456,13.17536,0.41216,-17.808,-27.95328,-54.80128,-25.38368,-53.5456,-8.85824,-29.3424,-17.17792,-33.6432,-13.32384,-21.8512,25.40512,
A,L,3,15,-40.05664,1.97312,-34.28064,-45.46208,-37.00032,-76.02528,-28.736,-73.18816,-20.56128,-20.168,-27.73376,-3.44704,-43.2544,-31.8704,-18.61856,
A,L,3,16,11.88032,26.50752,15.85344,19.47136,5.40672,13.82464,16.2592,11.48416,5.31456,28.43264,6.08384,19.09152,10.29472,11.18464,21.40672,
A,L,3,17,87.24064,91.5424,69.82752,80.27072,107.11808,84.12736,70.38496,75.58816,93.40768,65.17664,83.47648,75.3424,85.03648,82.9552,55.67744,
A,L,3,18,-217.97536,-170.03552,-218.4672,-236.46752,-316.0848,-298.38592,-319.17376,-329.2368,-328.03872,-317.44992,-327.12384,-320.53856,-370.81344,-389.784,-374.088,
A,L,3,19,-89.56928,-106.7328,-111.73952,-126.84352,-128.52064,-108.2208,-121.08256,-140.21728,-133.50368,-116.59872,-114.4928,-128.9488,-104.33024,-146.84128,-80.53568,
A,L,3,20,64.19456,91.94144,133.6128,103.68384,113.02752,96.18784,87.11584,103.94464,93.98624,101.07552,106.70016,146.07296,144.46368,127.96992,193.57696,
A,L,3,21,41.44128,101.93504,74.44576,77.86496,61.41696,90.69184,58.04704,59.39264,72.10848,67.2128,128.35328,105.86976,114.61248,104.04512,135.7936,
A,L,3,22,6.912,22.57536,32.60768,2.69952,36.38112,26.9456,28.31584,13.54336,-0.04576,34.38336,50.6416,23.3088,35.40256,115.62016,95.97568,
A,L,3,23,-201.56576,-193.30016,-184.53728,-224.87072,-249.0064,-245.26112,-229.78944,-280.77632,-294.62752,-248.60064,-278.0112,-263.43328,-327.42816,-329.22752,-246.02592,
A,L,3,24,-110.84224,-82.22784,-146.55648,-151.98912,-138.46368,-177.42144,-141.632,-202.73184,-165.95936,-195.05152,-204.76512,-161.82592,-197.35328,-161.72,-164.72,
A,L,3,25,159.52096,158.12064,167.5424,151.46208,180.41152,149.0336,182.15552,173.15424,154.50016,151.60672,140.16704,126.79072,147.09568,114.07776,139.60416,
